{"learner":{"attributes":{"scikit_learn":"{\"_estimator_type\": \"classifier\"}"},"feature_names":[],"feature_types":[],"gradient_booster":{"model":{"cats":{"enc":[],"feature_segments":[],"sorted_idx":[]},"gbtree_model_param":{"num_parallel_tree":"1","num_trees":"300"},"iteration_indptr":[0,1,2,3,4,5,6,7,8,9,10,11,12,13,14,15,16,17,18,19,20,21,22,23,24,25,26,27,28,29,30,31,32,33,34,35,36,37,38,39,40,41,42,43,44,45,46,47,48,49,50,51,52,53,54,55,56,57,58,59,60,61,62,63,64,65,66,67,68,69,70,71,72,73,74,75,76,77,78,79,80,81,82,83,84,85,86,87,88,89,90,91,92,93,94,95,96,97,98,99,100,101,102,103,104,105,106,107,108,109,110,111,112,113,114,115,116,117,118,119,120,121,122,123,124,125,126,127,128,129,130,131,132,133,134,135,136,137,138,139,140,141,142,143,144,145,146,147,148,149,150,151,152,153,154,155,156,157,158,159,160,161,162,163,164,165,166,167,168,169,170,171,172,173,174,175,176,177,178,179,180,181,182,183,184,185,186,187,188,189,190,191,192,193,194,195,196,197,198,199,200,201,202,203,204,205,206,207,208,209,210,211,212,213,214,215,216,217,218,219,220,221,222,223,224,225,226,227,228,229,230,231,232,233,234,235,236,237,238,239,240,241,242,243,244,245,246,247,248,249,250,251,252,253,254,255,256,257,258,259,260,261,262,263,264,265,266,267,268,269,270,271,272,273,274,275,276,277,278,279,280,281,282,283,284,285,286,287,288,289,290,291,292,293,294,295,296,297,298,299,300],"tree_info":[0,0,0,0,0,0,0,0,0,0,0,0,0,0,0,0,0,0,0,0,0,0,0,0,0,0,0,0,0,0,0,0,0,0,0,0,0,0,0,0,0,0,0,0,0,0,0,0,0,0,0,0,0,0,0,0,0,0,0,0,0,0,0,0,0,0,0,0,0,0,0,0,0,0,0,0,0,0,0,0,0,0,0,0,0,0,0,0,0,0,0,0,0,0,0,0,0,0,0,0,0,0,0,0,0,0,0,0,0,0,0,0,0,0,0,0,0,0,0,0,0,0,0,0,0,0,0,0,0,0,0,0,0,0,0,0,0,0,0,0,0,0,0,0,0,0,0,0,0,0,0,0,0,0,0,0,0,0,0,0,0,0,0,0,0,0,0,0,0,0,0,0,0,0,0,0,0,0,0,0,0,0,0,0,0,0,0,0,0,0,0,0,0,0,0,0,0,0,0,0,0,0,0,0,0,0,0,0,0,0,0,0,0,0,0,0,0,0,0,0,0,0,0,0,0,0,0,0,0,0,0,0,0,0,0,0,0,0,0,0,0,0,0,0,0,0,0,0,0,0,0,0,0,0,0,0,0,0,0,0,0,0,0,0,0,0,0,0,0,0,0,0,0,0,0,0,0,0,0,0,0,0,0,0,0,0,0,0,0,0,0,0,0,0,0,0,0,0,0,0],"trees":[{"base_weights":[5.986082E-4,-3.6623925E-1,7.971209E-1,-6.157344E-1,4.645955E-1,1.1883477E0,2.2958443E-1,-4.6009755E-1,-1.5297948E0,6.567191E-1,-1.0525578E0,1.3019904E0,-4.8637316E-1,-1.2900421E-1,9.509918E-1,-6.438036E-1,3.6366397E-1,-1.2486895E0,-1.8834808E0,4.2804062E-1,1.2348698E0,-6.1269146E-1,-1.8220503E0,1.0094905E0,1.5805912E0,3.3690657E-2,-1.5934427E0,-4.1979975E-1,8.273292E-1,1.0655738E0,-4.6153846E-1,-1.6785684E-1,-9.653606E-1,9.0028816E-1,-2.3419955E-1,-6.920415E-1,-1.5284837E0,-1.9080633E0,-7.096774E-1,8.3691406E-1,7.0316424E-3,1.5513824E0,7.554859E-1,2.72E-1,-1.2191528E0,-1.8590997E0,8.0000006E-2,6.521333E-1,1.3234487E0,1.7270108E0,1.3300788E0,6.84492E-1,-8.268551E-1,-6.666667E-1,-1.7777778E0,-7.090175E-1,2.6042983E-1,9.838275E-1,-9.846154E-1,7.932619E-1,1.5004108E0,-8.516746E-1,1.0545454E0,-3.533448E-2,7.53507E-2,-1.0606443E-1,7.2322376E-2,4.5726497E-2,1.4157304E-1,-6.0972016E-2,4.7232475E-2,-1.00113E-1,3.1272728E-2,-1.5756208E-1,2.8169013E-3,-1.9138323E-1,-0E0,1E-1,-1.20000005E-1,1.05700485E-1,1.4673367E-2,-2.4036879E-2,7.9873554E-2,1.586059E-1,2.857143E-2,1.7047817E-2,1.1038798E-1,1.19526625E-1,-4.761905E-2,-1.3833672E-1,3.7037037E-2,4.0000003E-2,-1.8891089E-1,9.724577E-2,1.9442352E-2,1.5385352E-1,1.0314708E-1,1.766202E-1,1.3364486E-1,1.1062069E-1,1.5924405E-1,9.8159514E-2,-1.2307693E-1,-1.2073733E-1,4.0000003E-2,4.0000003E-2,-1.6129033E-1,5E-2,-1.8225807E-1,-9.0311766E-2,8.152175E-3,4.194703E-2,-9.2063494E-2,6.20506E-2,1.3487111E-1,-1.7058824E-1,-1.818182E-2,3.9490446E-2,1.1576885E-1,6.0869563E-2,1.5486112E-1,-1.1208792E-1,8.387097E-2,-4.4444446E-2,1.6097562E-1],"categories":[],"categories_nodes":[],"categories_segments":[],"categories_sizes":[],"default_left":[0,0,0,0,0,0,0,0,0,0,0,0,0,0,0,0,0,0,0,0,0,0,0,0,0,0,0,0,0,0,0,0,0,0,0,0,0,0,0,0,0,0,0,0,0,0,0,0,0,0,0,0,0,0,0,0,0,0,0,0,0,0,0,0,0,0,0,0,0,0,0,0,0,0,0,0,0,0,0,0,0,0,0,0,0,0,0,0,0,0,0,0,0,0,0,0,0,0,0,0,0,0,0,0,0,0,0,0,0,0,0,0,0,0,0,0,0,0,0,0,0,0,0,0,0],"id":0,"left_children":[1,3,5,7,9,11,13,15,17,19,21,23,25,27,29,31,33,35,37,39,41,43,45,47,49,51,53,55,57,59,61,63,65,67,69,71,73,75,77,79,81,83,85,87,89,91,-1,93,95,97,99,101,103,105,107,109,111,113,115,117,119,121,123,-1,-1,-1,-1,-1,-1,-1,-1,-1,-1,-1,-1,-1,-1,-1,-1,-1,-1,-1,-1,-1,-1,-1,-1,-1,-1,-1,-1,-1,-1,-1,-1,-1,-1,-1,-1,-1,-1,-1,-1,-1,-1,-1,-1,-1,-1,-1,-1,-1,-1,-1,-1,-1,-1,-1,-1,-1,-1,-1,-1,-1,-1],"loss_changes":[5.85777E3,2.8455378E3,1.4033242E3,1.5010796E3,9.248316E2,7.127627E2,6.6773303E2,1.3655331E3,1.5031226E2,3.7161145E2,1.1963422E2,2.8396826E2,1.373693E2,4.7999594E2,1.3919763E2,1.1288823E3,5.2821356E2,1.32651E2,1.8209473E1,3.4745746E2,1.19795654E2,1.2292899E2,1.40433655E1,1.9124329E2,6.3470215E1,9.199322E1,1.1841187E1,2.6051355E2,1.15104095E2,9.270996E1,3.934428E1,5.088275E2,7.09105E2,1.9744867E2,2.0703427E2,9.006561E1,4.1905273E1,7.303467E0,1.4193548E1,1.5539294E2,1.9517847E2,2.0580688E1,6.482822E1,6.532971E1,3.594615E1,9.41629E0,0E0,1.1750659E2,5.5592896E1,1.4908936E1,3.7341675E1,5.4412422E1,3.3511925E1,1.5027956E1,7.3405E0,1.4258456E2,7.467574E1,4.834659E1,1.8508352E1,7.064081E1,1.2134277E1,2.471693E1,1.2158955E1,0E0,0E0,0E0,0E0,0E0,0E0,0E0,0E0,0E0,0E0,0E0,0E0,0E0,0E0,0E0,0E0,0E0,0E0,0E0,0E0,0E0,0E0,0E0,0E0,0E0,0E0,0E0,0E0,0E0,0E0,0E0,0E0,0E0,0E0,0E0,0E0,0E0,0E0,0E0,0E0,0E0,0E0,0E0,0E0,0E0,0E0,0E0,0E0,0E0,0E0,0E0,0E0,0E0,0E0,0E0,0E0,0E0,0E0,0E0,0E0,0E0,0E0],"parents":[2147483647,0,0,1,1,2,2,3,3,4,4,5,5,6,6,7,7,8,8,9,9,10,10,11,11,12,12,13,13,14,14,15,15,16,16,17,17,18,18,19,19,20,20,21,21,22,22,23,23,24,24,25,25,26,26,27,27,28,28,29,29,30,30,31,31,32,32,33,33,34,34,35,35,36,36,37,37,38,38,39,39,40,40,41,41,42,42,43,43,44,44,45,45,47,47,48,48,49,49,50,50,51,51,52,52,53,53,54,54,55,55,56,56,57,57,58,58,59,59,60,60,61,61,62,62],"right_children":[2,4,6,8,10,12,14,16,18,20,22,24,26,28,30,32,34,36,38,40,42,44,46,48,50,52,54,56,58,60,62,64,66,68,70,72,74,76,78,80,82,84,86,88,90,92,-1,94,96,98,100,102,104,106,108,110,112,114,116,118,120,122,124,-1,-1,-1,-1,-1,-1,-1,-1,-1,-1,-1,-1,-1,-1,-1,-1,-1,-1,-1,-1,-1,-1,-1,-1,-1,-1,-1,-1,-1,-1,-1,-1,-1,-1,-1,-1,-1,-1,-1,-1,-1,-1,-1,-1,-1,-1,-1,-1,-1,-1,-1,-1,-1,-1,-1,-1,-1,-1,-1,-1,-1,-1],"split_conditions":[6.572852E0,6.9069242E0,5.305027E0,1.3311657E1,1.3311657E1,1.3360868E1,6.453497E0,6.2615094E0,1.3417541E1,6.2609224E0,1.3437002E1,6.520675E0,1.3459927E1,6.7909813E0,1.328142E1,4.2323885E0,4.4873095E0,3.8527398E0,4.797051E0,4.2892556E0,4.604666E0,3.9005978E0,5.8401203E0,6.73815E0,4.2445016E0,4.1191273E0,1.0690596E1,6.2692547E0,1.3277975E1,6.8690577E0,4.4925566E0,5.9238124E0,6.3052444E0,6.050108E0,6.385263E0,5.746557E0,6.2740216E0,5.9376225E0,2.7671888E0,4.235235E0,6.594668E0,5.0143585E0,6.197614E0,1.1007026E1,5.928931E0,4.019713E0,8.0000006E-2,4.33434E0,4.2467375E0,4.4701915E0,6.2350373E0,8.501322E0,6.820796E0,1.3505691E1,1.5381743E0,7.099664E0,1.3255115E1,4.992207E0,4.1413264E0,6.4290605E0,6.0533195E0,6.3693914E0,6.2885256E0,-3.533448E-2,7.53507E-2,-1.0606443E-1,7.2322376E-2,4.5726497E-2,1.4157304E-1,-6.0972016E-2,4.7232475E-2,-1.00113E-1,3.1272728E-2,-1.5756208E-1,2.8169013E-3,-1.9138323E-1,-0E0,1E-1,-1.20000005E-1,1.05700485E-1,1.4673367E-2,-2.4036879E-2,7.9873554E-2,1.586059E-1,2.857143E-2,1.7047817E-2,1.1038798E-1,1.19526625E-1,-4.761905E-2,-1.3833672E-1,3.7037037E-2,4.0000003E-2,-1.8891089E-1,9.724577E-2,1.9442352E-2,1.5385352E-1,1.0314708E-1,1.766202E-1,1.3364486E-1,1.1062069E-1,1.5924405E-1,9.8159514E-2,-1.2307693E-1,-1.2073733E-1,4.0000003E-2,4.0000003E-2,-1.6129033E-1,5E-2,-1.8225807E-1,-9.0311766E-2,8.152175E-3,4.194703E-2,-9.2063494E-2,6.20506E-2,1.3487111E-1,-1.7058824E-1,-1.818182E-2,3.9490446E-2,1.1576885E-1,6.0869563E-2,1.5486112E-1,-1.1208792E-1,8.387097E-2,-4.4444446E-2,1.6097562E-1],"split_indices":[3044,2908,4068,2080,2080,2080,1113,1176,2080,1112,2080,1052,2080,2905,2080,101,104,27,2999,153,24,90,2631,2980,89,3941,2016,1453,2080,1113,950,987,2968,1112,1239,933,1110,1042,439,4008,2904,150,1113,2016,1108,2166,0,153,26,3992,3032,2024,1060,2080,72,3044,2080,2959,753,3034,2712,1109,1241,0,0,0,0,0,0,0,0,0,0,0,0,0,0,0,0,0,0,0,0,0,0,0,0,0,0,0,0,0,0,0,0,0,0,0,0,0,0,0,0,0,0,0,0,0,0,0,0,0,0,0,0,0,0,0,0,0,0,0,0,0,0],"split_type":[0,0,0,0,0,0,0,0,0,0,0,0,0,0,0,0,0,0,0,0,0,0,0,0,0,0,0,0,0,0,0,0,0,0,0,0,0,0,0,0,0,0,0,0,0,0,0,0,0,0,0,0,0,0,0,0,0,0,0,0,0,0,0,0,0,0,0,0,0,0,0,0,0,0,0,0,0,0,0,0,0,0,0,0,0,0,0,0,0,0,0,0,0,0,0,0,0,0,0,0,0,0,0,0,0,0,0,0,0,0,0,0,0,0,0,0,0,0,0,0,0,0,0,0,0],"sum_hessian":[2.00455E4,1.3725E4,6.3205E3,1.05555E4,3.1695E3,3.74075E3,2.57975E3,9.021E3,1.5345E3,2.81375E3,3.5575E2,3.50325E3,2.375E2,1.72375E3,8.56E2,7.37625E3,1.64475E3,8.575E2,6.77E2,2.0175E3,7.9625E2,2.275E2,1.2825E2,1.71125E3,1.792E3,1.6225E2,7.525E1,1.32225E3,4.015E2,7.92E2,6.4E1,2.97475E3,4.4015E3,8.665E2,7.7825E2,2.88E2,5.695E2,6.625E2,1.45E1,1.023E3,9.945E2,4.7825E2,3.18E2,9.275E1,1.3475E2,1.2675E2,1.5E0,8.0175E2,9.095E2,1.12725E3,6.6475E2,9.25E1,6.975E1,1.325E1,6.2E1,9.2775E2,3.945E2,3.7E2,3.15E1,4.8875E2,3.0325E2,5.125E1,1.275E1,2.47675E3,4.98E2,4.16675E3,2.3475E2,4.67E2,3.995E2,5.0825E2,2.7E2,2.2025E2,6.775E1,5.5275E2,1.675E1,6.605E2,2E0,3E0,1.15E1,7.7525E2,2.4775E2,7.5825E2,2.3625E2,4.6525E2,1.3E1,1.1925E2,1.9875E2,4.125E1,5.15E1,1.2225E2,1.25E1,1.5E0,1.2525E2,4.71E2,3.3075E2,5.2125E2,3.8825E2,1.02125E3,1.06E2,3.615E2,3.0325E2,8.05E1,1.2E1,5.325E1,1.65E1,6.5E0,6.75E0,1E0,6.1E1,7.4475E2,1.83E2,3.4825E2,4.625E1,1.8675E2,1.8325E2,1.6E1,1.55E1,2.345E2,2.5425E2,1.625E1,2.87E2,4.45E1,6.75E0,3.5E0,9.25E0],"tree_param":{"num_deleted":"0","num_feature":"4096","num_nodes":"125","size_leaf_vector":"1"}},{"base_weights":[3.0933262E-4,-3.4045637E-1,7.302145E-1,-5.79634E-1,7.124614E-1,8.3293164E-1,-9.126556E-1,-7.491437E-1,9.712138E-2,8.346974E-1,-1.0454305E0,1.1960475E0,4.0501308E-1,-3.448031E-1,-1.425526E0,-2.6413074E-1,-9.714151E-1,4.0181613E-1,-5.297673E-1,1.2218084E0,5.11775E-1,-2.5635082E-1,-1.4192828E0,8.3988845E-1,1.4436047E0,4.7372553E-2,9.463406E-1,2.2993632E-1,-1.5919371E0,-1.4783007E0,5.849678E-1,-6.3332394E-2,-1.447287E0,-1.0822859E0,-1.941974E-1,5.726978E-1,-9.735783E-1,-7.660351E-1,3.452314E-1,1.3585943E0,7.3080826E-1,4.698155E-2,8.333424E-1,5.6723267E-1,-1.2290089E0,-1.5622611E0,-1.3177444E-1,1.0499767E0,2.9420432E-1,1.521033E0,1.0133777E0,-2.7433088E-1,8.7315875E-1,6.38673E-1,1.2304451E0,1.0830549E0,-6.174437E-1,-1.6900153E0,5.4442506E-2,9.518797E-2,-1.5056655E0,-8.996041E-2,1.4596121E-1,1.5298597E-2,-8.5903175E-2,-1.09014705E-1,-1.7655057E-1,-9.3900196E-2,-1.5220203E-1,-3.9793984E-3,-1.4689215E-1,6.5486147E-3,9.555433E-2,-4.3143418E-2,-1.5357168E-1,-8.9192025E-2,6.0781725E-2,8.358282E-3,1.1382705E-1,1.1627413E-1,1.5982798E-1,2.9926574E-2,1.2355868E-1,-2.4864458E-2,7.405233E-2,6.614657E-2,1.3064449E-1,1.0437168E-1,-7.6186486E-2,-1.5299731E-1,4.9419243E-2,3.430983E-2,-1.6244309E-1,-9.735652E-2,9.878812E-2,7.709375E-2,1.4494748E-1,-3.4749534E-2,6.734078E-2,1.4193004E-1,1.721067E-1,6.42604E-2,1.3787298E-1,-4.6929628E-2,6.7485884E-2,6.088632E-2,1.2903121E-1,4.040867E-2,1.14438355E-1,1.009287E-1,1.5136226E-1,1.4527956E-1,-2.0107685E-2,-1.0910833E-1,4.6761222E-2,8.671969E-3,-1.7417805E-1,-1.5638518E-1,-1.5938228E-2],"categories":[],"categories_nodes":[],"categories_segments":[],"categories_sizes":[],"default_left":[0,0,0,0,0,0,0,0,0,0,0,0,0,0,0,0,0,0,0,0,0,0,0,0,0,0,0,0,0,0,0,0,0,0,0,0,0,0,0,0,0,0,0,0,0,0,0,0,0,0,0,0,0,0,0,0,0,0,0,0,0,0,0,0,0,0,0,0,0,0,0,0,0,0,0,0,0,0,0,0,0,0,0,0,0,0,0,0,0,0,0,0,0,0,0,0,0,0,0,0,0,0,0,0,0,0,0,0,0,0,0,0,0,0,0,0,0,0,0],"id":1,"left_children":[1,3,5,7,9,11,13,15,17,19,21,23,25,27,29,31,33,35,37,39,41,43,45,47,49,51,53,55,57,59,61,63,65,67,69,71,73,75,77,79,81,83,85,87,89,91,93,95,97,99,101,103,105,107,109,111,113,115,-1,-1,117,-1,-1,-1,-1,-1,-1,-1,-1,-1,-1,-1,-1,-1,-1,-1,-1,-1,-1,-1,-1,-1,-1,-1,-1,-1,-1,-1,-1,-1,-1,-1,-1,-1,-1,-1,-1,-1,-1,-1,-1,-1,-1,-1,-1,-1,-1,-1,-1,-1,-1,-1,-1,-1,-1,-1,-1,-1,-1],"loss_changes":[4.960553E3,3.4244092E3,1.071919E3,1.2711321E3,5.4176746E2,9.278701E2,1.0842825E2,9.5497217E2,4.243014E2,2.93656E2,4.804567E1,2.837085E2,5.3121063E2,1.285273E2,2.1681244E1,6.617841E2,5.233457E2,3.5184106E2,1.5047978E2,7.086572E1,1.9204855E2,4.3934185E1,2.0250854E1,1.5187646E2,6.1918213E1,4.394901E2,9.463391E1,8.978244E1,1.2765305E1,1.4165283E1,8.759422E0,4.1026715E2,4.4008606E1,3.3358252E2,1.4947366E2,2.5821915E2,4.9788956E1,9.954358E1,3.2103317E1,3.7369385E1,5.088362E1,1.0815533E2,6.0901E1,1.9737732E1,1.3754459E1,1.2394257E1,1.2459756E1,1.0568555E2,9.03655E1,3.037085E1,3.8879395E1,2.2065807E2,5.034787E1,6.195787E1,3.3948853E1,2.9629768E1,3.2620186E1,5.144684E0,0E0,0E0,1.4611877E1,0E0,0E0,0E0,0E0,0E0,0E0,0E0,0E0,0E0,0E0,0E0,0E0,0E0,0E0,0E0,0E0,0E0,0E0,0E0,0E0,0E0,0E0,0E0,0E0,0E0,0E0,0E0,0E0,0E0,0E0,0E0,0E0,0E0,0E0,0E0,0E0,0E0,0E0,0E0,0E0,0E0,0E0,0E0,0E0,0E0,0E0,0E0,0E0,0E0,0E0,0E0,0E0,0E0,0E0,0E0,0E0,0E0,0E0],"parents":[2147483647,0,0,1,1,2,2,3,3,4,4,5,5,6,6,7,7,8,8,9,9,10,10,11,11,12,12,13,13,14,14,15,15,16,16,17,17,18,18,19,19,20,20,21,21,22,22,23,23,24,24,25,25,26,26,27,27,28,28,29,29,30,30,31,31,32,32,33,33,34,34,35,35,36,36,37,37,38,38,39,39,40,40,41,41,42,42,43,43,44,44,45,45,46,46,47,47,48,48,49,49,50,50,51,51,52,52,53,53,54,54,55,55,56,56,57,57,60,60],"right_children":[2,4,6,8,10,12,14,16,18,20,22,24,26,28,30,32,34,36,38,40,42,44,46,48,50,52,54,56,58,60,62,64,66,68,70,72,74,76,78,80,82,84,86,88,90,92,94,96,98,100,102,104,106,108,110,112,114,116,-1,-1,118,-1,-1,-1,-1,-1,-1,-1,-1,-1,-1,-1,-1,-1,-1,-1,-1,-1,-1,-1,-1,-1,-1,-1,-1,-1,-1,-1,-1,-1,-1,-1,-1,-1,-1,-1,-1,-1,-1,-1,-1,-1,-1,-1,-1,-1,-1,-1,-1,-1,-1,-1,-1,-1,-1,-1,-1,-1,-1],"split_conditions":[6.6407413E0,6.621855E0,1.3360868E1,4.8254867E0,1.3354813E1,4.8913174E0,4.3146477E0,3.8506527E0,3.8481038E0,4.2013073E0,3.6657052E0,6.428822E0,6.722446E0,1.3488603E1,6.829683E0,1.3360868E1,6.3407636E0,1.332507E1,6.090721E0,4.6704025E0,6.8362026E0,1.3437002E1,6.3532066E0,4.476144E0,4.369116E0,6.669668E0,5.5623474E0,1.1119085E1,5.7153163E0,2.034537E0,3.9815834E0,4.1777577E0,1.3448553E1,1.3227573E1,1.3299519E1,4.7089605E0,1.3409369E1,6.755148E0,5.7228303E0,6.823752E0,5.944903E0,5.247087E0,6.1870027E0,3.7222939E0,6.5575476E0,1.5950898E0,3.9236138E0,5.899917E0,6.052594E0,6.0519505E0,6.3938637E0,5.487371E0,7.0667653E0,6.587411E0,6.1882305E0,3.6229284E0,5.509064E0,2.1644142E0,5.4442506E-2,9.518797E-2,5.7449574E0,-8.996041E-2,1.4596121E-1,1.5298597E-2,-8.5903175E-2,-1.09014705E-1,-1.7655057E-1,-9.3900196E-2,-1.5220203E-1,-3.9793984E-3,-1.4689215E-1,6.5486147E-3,9.555433E-2,-4.3143418E-2,-1.5357168E-1,-8.9192025E-2,6.0781725E-2,8.358282E-3,1.1382705E-1,1.1627413E-1,1.5982798E-1,2.9926574E-2,1.2355868E-1,-2.4864458E-2,7.405233E-2,6.614657E-2,1.3064449E-1,1.0437168E-1,-7.6186486E-2,-1.5299731E-1,4.9419243E-2,3.430983E-2,-1.6244309E-1,-9.735652E-2,9.878812E-2,7.709375E-2,1.4494748E-1,-3.4749534E-2,6.734078E-2,1.4193004E-1,1.721067E-1,6.42604E-2,1.3787298E-1,-4.6929628E-2,6.7485884E-2,6.088632E-2,1.2903121E-1,4.040867E-2,1.14438355E-1,1.009287E-1,1.5136226E-1,1.4527956E-1,-2.0107685E-2,-1.0910833E-1,4.6761222E-2,8.671969E-3,-1.7417805E-1,-1.5638518E-1,-1.5938228E-2],"split_indices":[2981,2971,2080,1104,2080,101,155,3942,3920,25,4070,3045,1178,2080,871,2080,2642,2080,1390,27,2971,2080,1064,3993,106,2970,1108,2016,1660,363,716,103,2080,2080,2080,2992,2080,2921,2927,3042,1063,2961,1130,233,3173,3708,1213,999,1052,1110,1127,1106,2970,1113,2965,20,1670,404,0,0,1070,0,0,0,0,0,0,0,0,0,0,0,0,0,0,0,0,0,0,0,0,0,0,0,0,0,0,0,0,0,0,0,0,0,0,0,0,0,0,0,0,0,0,0,0,0,0,0,0,0,0,0,0,0,0,0,0,0,0],"split_type":[0,0,0,0,0,0,0,0,0,0,0,0,0,0,0,0,0,0,0,0,0,0,0,0,0,0,0,0,0,0,0,0,0,0,0,0,0,0,0,0,0,0,0,0,0,0,0,0,0,0,0,0,0,0,0,0,0,0,0,0,0,0,0,0,0,0,0,0,0,0,0,0,0,0,0,0,0,0,0,0,0,0,0,0,0,0,0,0,0,0,0,0,0,0,0,0,0,0,0,0,0,0,0,0,0,0,0,0,0,0,0,0,0,0,0,0,0,0,0],"sum_hessian":[1.9941795E4,1.3595222E4,6.3465723E3,1.1078999E4,2.5162224E3,5.973579E3,3.729931E2,8.859754E3,2.219246E3,2.3531218E3,1.6310045E2,3.2305007E3,2.7430786E3,1.778021E2,1.9519101E2,2.7849563E3,6.074797E3,1.4936346E3,7.256114E2,1.068931E3,1.2841909E3,5.2974445E1,1.10126E2,1.3264856E3,1.904015E3,1.652442E3,1.0906365E3,1.22269875E2,5.553222E1,1.9045631E2,4.7347007E0,2.3817869E3,4.031694E2,5.3160635E3,7.5873364E2,1.3290896E3,1.6454506E2,5.714363E2,1.5417513E2,8.346439E2,2.3428717E2,5.256142E2,7.585767E2,2.8911171E1,2.4063274E1,9.892675E1,1.1199254E1,9.5708435E2,3.694013E2,1.611463E3,2.925521E2,1.1896537E3,4.6278833E2,5.2516425E2,5.654723E2,6.0790035E1,6.1479836E1,5.3294456E1,2.2377653E0,1.7445385E0,1.8871178E2,1.7447401E0,2.9899607E0,1.873316E3,5.084709E2,1.9205269E2,2.1111671E2,4.01194E3,1.3041235E3,6.776796E2,8.105403E1,5.7219275E2,7.568968E2,8.466193E1,7.988314E1,5.2379236E2,4.764393E1,1.1675828E2,3.7416843E1,4.6254102E2,3.7210287E2,1.27164894E2,1.0712227E2,3.6897705E2,1.5663712E2,5.581871E2,2.0038963E2,2.143971E1,7.471462E0,2.0580873E1,3.4824011E0,2.9830954E0,9.594365E1,6.4673696E0,4.7318845E0,5.6522144E2,3.9186288E2,1.3724118E2,2.3216011E2,1.0735668E3,5.378962E2,1.4656801E2,1.459841E2,9.8735474E2,2.02299E2,2.8480447E2,1.7798386E2,3.5997842E2,1.651858E2,3.200675E2,2.4540479E2,4.70978E1,1.3692236E1,4.2794136E1,1.8685698E1,1.4896592E0,5.1804794E1,1.8073865E2,7.973131E0],"tree_param":{"num_deleted":"0","num_feature":"4096","num_nodes":"119","size_leaf_vector":"1"}},{"base_weights":[-1.4611139E-3,-3.264675E-1,6.6890824E-1,-5.401175E-1,7.436355E-1,9.947132E-1,2.5882247E-1,-1.476162E-1,-7.8678155E-1,8.38896E-1,-1.1914604E0,1.0835257E0,-7.4454576E-1,-3.3073094E-2,9.0945476E-1,1.0236363E-2,-1.3878105E0,-9.570118E-1,-3.6813386E-2,1.1211834E0,5.14977E-1,5.369861E-1,-1.3001647E0,7.586387E-1,1.3825874E0,-1.15012825E-1,-1.3674257E0,-2.5658336E-1,8.1314534E-1,9.8716986E-1,-7.348152E-1,-2.8913602E-1,6.779456E-1,-1.0431813E0,-1.6380624E0,-1.0527819E0,-7.426952E-2,1.4026472E-1,-1.0584512E0,1.1986213E0,2.5755918E-1,1.923472E-1,9.1896755E-1,-8.701146E-2,1.2691795E0,-1.509377E0,-3.6841592E-1,5.3405726E-1,1.2149752E0,1.4645467E0,1.0836818E0,7.978062E-1,-8.5201967E-1,-1.4260234E0,9.972824E-2,-4.193965E-1,7.4313504E-1,9.4067293E-1,-6.041969E-1,6.277103E-1,1.1814269E0,-1.0641356E0,3.9538118E-1,-4.787963E-2,3.0825693E-2,9.757087E-2,-4.338531E-2,-1.2639989E-1,-2.426578E-2,-1.6538058E-1,-3.5499196E-2,-1.1234597E-1,-2.3272388E-2,1.7525034E-2,-9.2341535E-2,-1.6779684E-2,6.0601152E-2,-1.2407117E-1,-1.5761275E-2,1.346793E-1,8.188585E-2,-1.3495157E-2,1.1112728E-1,-1.0984477E-2,7.658393E-2,6.298389E-2,1.1718056E-1,1.5422653E-1,2.4506157E-2,-1.5801908E-1,1.4562117E-2,1.2295975E-1,-1.0379638E-1,7.342546E-2,-3.8118921E-3,1.3595195E-1,7.6084964E-2,1.259388E-1,1.5634848E-1,1.154282E-1,-4.4681225E-2,1.3136128E-1,-6.626286E-2,-1.155368E-1,7.0519336E-2,-6.850662E-2,-1.6011347E-1,-5.9141614E-2,3.5899498E-2,8.453222E-2,-1.3074988E-1,7.0819266E-2,1.2733023E-1,-9.512686E-2,9.944688E-2,3.581768E-2,1.16411485E-1,8.189951E-2,1.3191085E-1,-1.3187928E-1,2.6586002E-2,1.0411667E-1,-1.1026243E-1],"categories":[],"categories_nodes":[],"categories_segments":[],"categories_sizes":[],"default_left":[0,0,0,0,0,0,0,0,0,0,0,0,0,0,0,0,0,0,0,0,0,0,0,0,0,0,0,0,0,0,0,0,0,0,0,0,0,0,0,0,0,0,0,0,0,0,0,0,0,0,0,0,0,0,0,0,0,0,0,0,0,0,0,0,0,0,0,0,0,0,0,0,0,0,0,0,0,0,0,0,0,0,0,0,0,0,0,0,0,0,0,0,0,0,0,0,0,0,0,0,0,0,0,0,0,0,0,0,0,0,0,0,0,0,0,0,0,0,0,0,0,0,0],"id":2,"left_children":[1,3,5,7,9,11,13,15,17,19,21,23,25,27,29,31,33,35,37,39,41,43,45,47,49,51,53,55,57,59,61,63,65,67,69,71,73,75,77,79,81,83,85,-1,87,89,91,93,95,97,99,101,103,105,-1,107,109,111,113,115,117,119,121,-1,-1,-1,-1,-1,-1,-1,-1,-1,-1,-1,-1,-1,-1,-1,-1,-1,-1,-1,-1,-1,-1,-1,-1,-1,-1,-1,-1,-1,-1,-1,-1,-1,-1,-1,-1,-1,-1,-1,-1,-1,-1,-1,-1,-1,-1,-1,-1,-1,-1,-1,-1,-1,-1,-1,-1,-1,-1,-1,-1],"loss_changes":[4.32391E3,3.0562102E3,8.6552344E2,1.0786099E3,4.1112463E2,5.5854736E2,5.451444E2,8.420345E2,8.734536E2,1.9336792E2,2.038884E1,3.3276953E2,6.886081E1,3.7514474E2,1.1431885E2,7.6308484E2,4.017505E1,4.71333E2,2.2931508E2,7.54303E1,1.2879977E2,8.222132E0,1.8720947E1,1.6834546E2,4.220923E1,6.030585E1,1.3668808E1,2.556781E2,7.547693E1,5.855957E1,1.5566298E1,2.98781E2,3.9164014E2,3.6293747E1,5.060669E0,2.912964E2,1.1602414E2,1.5513058E2,3.0547668E1,5.7364258E1,3.180452E1,9.565075E1,3.1361877E1,0E0,1.0066633E0,9.656723E0,2.2093082E1,1.2682013E2,3.4614197E1,2.6452148E1,4.2500214E1,3.1084606E1,2.4207333E1,1.01466675E1,0E0,1.809511E2,4.7224068E1,2.8530884E1,2.0265835E1,4.2967125E1,2.6373718E1,1.1114807E1,1.0735609E1,0E0,0E0,0E0,0E0,0E0,0E0,0E0,0E0,0E0,0E0,0E0,0E0,0E0,0E0,0E0,0E0,0E0,0E0,0E0,0E0,0E0,0E0,0E0,0E0,0E0,0E0,0E0,0E0,0E0,0E0,0E0,0E0,0E0,0E0,0E0,0E0,0E0,0E0,0E0,0E0,0E0,0E0,0E0,0E0,0E0,0E0,0E0,0E0,0E0,0E0,0E0,0E0,0E0,0E0,0E0,0E0,0E0,0E0,0E0,0E0],"parents":[2147483647,0,0,1,1,2,2,3,3,4,4,5,5,6,6,7,7,8,8,9,9,10,10,11,11,12,12,13,13,14,14,15,15,16,16,17,17,18,18,19,19,20,20,21,21,22,22,23,23,24,24,25,25,26,26,27,27,28,28,29,29,30,30,31,31,32,32,33,33,34,34,35,35,36,36,37,37,38,38,39,39,40,40,41,41,42,42,44,44,45,45,46,46,47,47,48,48,49,49,50,50,51,51,52,52,53,53,55,55,56,56,57,57,58,58,59,59,60,60,61,61,62,62],"right_children":[2,4,6,8,10,12,14,16,18,20,22,24,26,28,30,32,34,36,38,40,42,44,46,48,50,52,54,56,58,60,62,64,66,68,70,72,74,76,78,80,82,84,86,-1,88,90,92,94,96,98,100,102,104,106,-1,108,110,112,114,116,118,120,122,-1,-1,-1,-1,-1,-1,-1,-1,-1,-1,-1,-1,-1,-1,-1,-1,-1,-1,-1,-1,-1,-1,-1,-1,-1,-1,-1,-1,-1,-1,-1,-1,-1,-1,-1,-1,-1,-1,-1,-1,-1,-1,-1,-1,-1,-1,-1,-1,-1,-1,-1,-1,-1,-1,-1,-1,-1,-1,-1,-1],"split_conditions":[6.4886303E0,6.50354E0,4.7825794E0,3.9445226E0,1.3393027E1,1.3385215E1,6.7203383E0,1.3378707E1,6.1242504E0,4.6606197E0,3.338102E0,6.388639E0,1.3459927E1,6.676103E0,1.3320484E1,6.613525E0,1.3448553E1,6.499273E0,1.3252191E1,8.268208E0,6.8527393E0,2.3077562E0,4.400223E0,6.4150896E0,4.4596086E0,4.1690903E0,6.0522513E0,6.1466613E0,1.3285014E1,5.926153E0,5.3955255E0,5.3682513E0,5.687259E0,6.347273E0,9.55406E0,6.997481E0,1.3189609E1,5.9804616E0,6.2035995E0,4.3890014E0,7.3155613E0,5.7945127E0,6.340997E0,-8.701146E-2,6.4824877E0,7.184887E0,3.587825E0,4.542402E0,4.4104967E0,6.1991887E0,1.3291978E1,9.51741E0,7.947093E0,2.7137752E0,9.972824E-2,7.4547124E0,1.3320484E1,7.287109E0,4.784384E0,7.215664E0,4.8935046E0,7.0452614E0,6.809756E0,-4.787963E-2,3.0825693E-2,9.757087E-2,-4.338531E-2,-1.2639989E-1,-2.426578E-2,-1.6538058E-1,-3.5499196E-2,-1.1234597E-1,-2.3272388E-2,1.7525034E-2,-9.2341535E-2,-1.6779684E-2,6.0601152E-2,-1.2407117E-1,-1.5761275E-2,1.346793E-1,8.188585E-2,-1.3495157E-2,1.1112728E-1,-1.0984477E-2,7.658393E-2,6.298389E-2,1.1718056E-1,1.5422653E-1,2.4506157E-2,-1.5801908E-1,1.4562117E-2,1.2295975E-1,-1.0379638E-1,7.342546E-2,-3.8118921E-3,1.3595195E-1,7.6084964E-2,1.259388E-1,1.5634848E-1,1.154282E-1,-4.4681225E-2,1.3136128E-1,-6.626286E-2,-1.155368E-1,7.0519336E-2,-6.850662E-2,-1.6011347E-1,-5.9141614E-2,3.5899498E-2,8.453222E-2,-1.3074988E-1,7.0819266E-2,1.2733023E-1,-9.512686E-2,9.944688E-2,3.581768E-2,1.16411485E-1,8.189951E-2,1.3191085E-1,-1.3187928E-1,2.6586002E-2,1.0411667E-1,-1.1026243E-1],"split_indices":[2970,2982,154,25,2080,2080,1191,2080,2641,27,3875,3034,2080,2983,2080,1118,2080,2669,2080,352,2982,439,3000,1114,4056,3933,1657,2769,2080,1064,941,3289,98,3044,1633,1123,2080,2705,2770,90,3039,1424,2578,0,2578,3036,88,103,24,1114,2080,2077,1314,338,0,1186,2080,991,3017,3038,979,3035,1870,0,0,0,0,0,0,0,0,0,0,0,0,0,0,0,0,0,0,0,0,0,0,0,0,0,0,0,0,0,0,0,0,0,0,0,0,0,0,0,0,0,0,0,0,0,0,0,0,0,0,0,0,0,0,0,0,0,0,0,0],"split_type":[0,0,0,0,0,0,0,0,0,0,0,0,0,0,0,0,0,0,0,0,0,0,0,0,0,0,0,0,0,0,0,0,0,0,0,0,0,0,0,0,0,0,0,0,0,0,0,0,0,0,0,0,0,0,0,0,0,0,0,0,0,0,0,0,0,0,0,0,0,0,0,0,0,0,0,0,0,0,0,0,0,0,0,0,0,0,0,0,0,0,0,0,0,0,0,0,0,0,0,0,0,0,0,0,0,0,0,0,0,0,0,0,0,0,0,0,0,0,0,0,0,0,0],"sum_hessian":[1.9843889E4,1.3364881E4,6.479008E3,1.1141029E4,2.2238523E3,3.6097263E3,2.8692812E3,4.300116E3,6.840913E3,2.1200532E3,1.0379905E2,3.4347153E3,1.7501112E2,1.9813363E3,8.87945E2,3.8154724E3,4.8464355E2,5.575167E3,1.265746E3,1.1315094E3,9.8854376E2,5.9086757E0,9.789037E1,1.6479717E3,1.7867435E3,8.762989E1,8.738123E1,1.567905E3,4.1343134E2,8.482527E2,3.969235E1,2.634736E3,1.1807365E3,2.0605191E2,2.7859164E2,5.029334E3,5.458331E2,1.0795012E3,1.8624474E2,1.0380441E3,9.346533E1,5.5043695E2,4.3810678E2,1.9578291E0,3.9508464E0,7.943444E1,1.8455933E1,1.1058896E3,5.420821E2,1.3991895E3,3.8755402E2,3.9108994E1,4.8520897E1,8.565563E1,1.7255995E0,1.3488182E3,2.1908673E2,3.796115E2,3.381982E1,2.9907178E2,5.491809E2,3.0781565E1,8.910784E0,1.9999808E3,6.3475525E2,9.3140814E2,2.4932828E2,1.6104897E2,4.500295E1,2.749293E2,3.6623485E0,4.6299272E3,3.9940643E2,4.2248138E2,1.2335172E2,6.5012506E2,4.293762E2,1.5459024E2,3.1654484E1,7.448717E2,2.9317233E2,6.460425E1,2.8861082E1,3.6101477E2,1.8942218E2,2.0601404E2,2.3209276E2,2.7196848E0,1.2311616E0,7.621843E1,3.2160158E0,5.2025404E0,1.3253391E1,8.1903595E2,2.8685364E2,4.0968817E2,1.3239394E2,4.596942E2,9.394953E2,3.7069983E2,1.6854202E1,2.8975693E1,1.0133302E1,4.082597E1,7.6949286E0,1.7312515E1,6.834312E1,1.1048856E3,2.4393259E2,2.092473E2,9.839432E0,2.2528503E2,1.5432646E2,2.8119923E1,5.6998973E0,2.0016185E2,9.890995E1,1.5310275E2,3.9607812E2,2.5841967E1,4.9395967E0,6.4396405E0,2.4711437E0],"tree_param":{"num_deleted":"0","num_feature":"4096","num_nodes":"123","size_leaf_vector":"1"}},{"base_weights":[-2.298322E-3,-2.931165E-1,6.616958E-1,-5.3045857E-1,3.1211752E-1,9.4529146E-1,1.0049898E-1,-6.3567364E-1,5.1771075E-1,4.4558516E-1,-8.0848914E-1,1.0103532E0,-8.513751E-1,-2.6026398E-1,6.762828E-1,-2.5501078E-1,-8.988203E-1,6.4282484E-2,8.763964E-1,8.21321E-1,9.888329E-2,-4.90799E-1,-1.4222603E0,6.9224066E-1,1.2268449E0,-3.9396027E-1,-1.4454398E0,-5.522058E-1,4.0489632E-1,7.6363385E-1,-1.0687022E0,-7.1970254E-2,-1.1101397E0,-9.9160606E-1,1.2630002E-2,2.5057572E-1,-8.7067634E-1,9.5031065E-1,-1.076121E0,1.0021894E0,8.045E-2,-1.19366355E-1,8.4968626E-1,4.428903E-1,-8.7070626E-1,-1.4580714E0,4.1697994E-1,3.1111744E-1,9.808337E-1,1.3589143E0,9.8825634E-1,5.538685E-1,-8.586176E-1,-1.5030881E0,5.140666E-2,-7.1446323E-1,5.2522945E-1,5.698731E-1,-8.2714087E-1,4.7221664E-1,1.149444E0,-1.4167618E0,4.6248266E-1,-3.270888E-2,4.8535284E-2,-8.366574E-2,-1.4926139E-1,-1.08341955E-1,-3.1576667E-2,1.96788E-2,-8.3688915E-2,6.619495E-2,-1.5160854E-2,3.330445E-2,-1.226575E-1,1.2674707E-1,5.9142478E-2,2.9089315E-2,-1.4256188E-1,6.842392E-2,1.2495033E-1,-3.3216808E-2,6.570758E-2,-2.9284418E-2,6.92341E-2,1.0603764E-1,2.2651844E-2,9.713457E-2,-6.3577384E-2,-1.18573226E-1,-1.5237381E-2,3.61386E-2,-1.4832486E-1,1.153566E-1,-5.2758522E-2,-1.2524053E-3,8.422021E-2,1.1983647E-1,6.441705E-2,1.2423586E-1,1.4905752E-1,1.097996E-1,3.0498235E-2,1.2855764E-1,-5.4968E-2,-1.04938544E-1,7.20275E-2,-6.0935565E-3,-1.550482E-1,-8.954053E-2,-9.523467E-3,9.008577E-2,-2.6064888E-2,3.152482E-2,1.1663691E-1,-1.10370755E-1,6.099091E-2,3.2896393E-3,8.357774E-2,8.897498E-2,1.3521478E-1,-1.6136706E-1,1.0063122E-2,1.0966306E-1,-9.026032E-2],"categories":[],"categories_nodes":[],"categories_segments":[],"categories_sizes":[],"default_left":[0,0,0,0,0,0,0,0,0,0,0,0,0,0,0,0,0,0,0,0,0,0,0,0,0,0,0,0,0,0,0,0,0,0,0,0,0,0,0,0,0,0,0,0,0,0,0,0,0,0,0,0,0,0,0,0,0,0,0,0,0,0,0,0,0,0,0,0,0,0,0,0,0,0,0,0,0,0,0,0,0,0,0,0,0,0,0,0,0,0,0,0,0,0,0,0,0,0,0,0,0,0,0,0,0,0,0,0,0,0,0,0,0,0,0,0,0,0,0,0,0,0,0,0,0],"id":3,"left_children":[1,3,5,7,9,11,13,15,17,19,21,23,25,27,29,31,33,35,37,39,41,43,45,47,49,51,53,55,57,59,61,63,65,67,69,71,73,75,77,79,81,83,85,87,89,91,93,95,97,99,101,103,105,107,-1,109,111,113,115,117,119,121,123,-1,-1,-1,-1,-1,-1,-1,-1,-1,-1,-1,-1,-1,-1,-1,-1,-1,-1,-1,-1,-1,-1,-1,-1,-1,-1,-1,-1,-1,-1,-1,-1,-1,-1,-1,-1,-1,-1,-1,-1,-1,-1,-1,-1,-1,-1,-1,-1,-1,-1,-1,-1,-1,-1,-1,-1,-1,-1,-1,-1,-1,-1],"loss_changes":[3.7906602E3,1.9611454E3,9.514895E2,1.081801E3,5.755895E2,4.6513818E2,4.1733902E2,8.925073E2,1.4552306E2,4.4769586E2,7.918439E1,2.6315405E2,3.7295143E1,2.4012396E2,1.1877548E2,5.7030853E2,4.456172E2,6.9265625E1,7.313718E1,2.2094788E2,2.932319E2,9.668258E1,9.776398E0,1.7069214E2,7.049292E1,3.5753468E1,7.5778656E0,1.505463E2,7.718233E1,8.2383514E1,2.0538841E1,4.270909E2,6.5948975E1,2.9640283E2,7.648231E1,5.4918972E1,2.872081E1,5.4113007E1,9.346659E0,1.0339038E2,7.748565E1,1.9549193E2,5.2673706E1,4.5750507E1,4.35618E1,6.801056E0,2.9993246E0,1.1541147E2,6.3987244E1,2.0626465E1,6.084851E1,2.2474867E1,1.7063828E1,3.922821E0,0E0,8.361063E1,3.359395E1,5.027468E1,1.8548794E1,6.7355606E1,1.546756E1,9.31876E0,7.62429E0,0E0,0E0,0E0,0E0,0E0,0E0,0E0,0E0,0E0,0E0,0E0,0E0,0E0,0E0,0E0,0E0,0E0,0E0,0E0,0E0,0E0,0E0,0E0,0E0,0E0,0E0,0E0,0E0,0E0,0E0,0E0,0E0,0E0,0E0,0E0,0E0,0E0,0E0,0E0,0E0,0E0,0E0,0E0,0E0,0E0,0E0,0E0,0E0,0E0,0E0,0E0,0E0,0E0,0E0,0E0,0E0,0E0,0E0,0E0,0E0,0E0,0E0],"parents":[2147483647,0,0,1,1,2,2,3,3,4,4,5,5,6,6,7,7,8,8,9,9,10,10,11,11,12,12,13,13,14,14,15,15,16,16,17,17,18,18,19,19,20,20,21,21,22,22,23,23,24,24,25,25,26,26,27,27,28,28,29,29,30,30,31,31,32,32,33,33,34,34,35,35,36,36,37,37,38,38,39,39,40,40,41,41,42,42,43,43,44,44,45,45,46,46,47,47,48,48,49,49,50,50,51,51,52,52,53,53,55,55,56,56,57,57,58,58,59,59,60,60,61,61,62,62],"right_children":[2,4,6,8,10,12,14,16,18,20,22,24,26,28,30,32,34,36,38,40,42,44,46,48,50,52,54,56,58,60,62,64,66,68,70,72,74,76,78,80,82,84,86,88,90,92,94,96,98,100,102,104,106,108,-1,110,112,114,116,118,120,122,124,-1,-1,-1,-1,-1,-1,-1,-1,-1,-1,-1,-1,-1,-1,-1,-1,-1,-1,-1,-1,-1,-1,-1,-1,-1,-1,-1,-1,-1,-1,-1,-1,-1,-1,-1,-1,-1,-1,-1,-1,-1,-1,-1,-1,-1,-1,-1,-1,-1,-1,-1,-1,-1,-1,-1,-1,-1,-1,-1,-1,-1,-1],"split_conditions":[6.5917153E0,4.9042006E0,5.514248E0,5.4157805E0,1.3299519E1,1.3409369E1,6.2483854E0,3.8285189E0,4.7687383E0,4.52374E0,1.3426706E1,6.3883896E0,1.3488603E1,6.001693E0,1.3320484E1,1.3320484E1,7.1030097E0,1.3271375E1,1.3409369E1,4.413745E0,5.501873E0,4.130119E0,7.490021E0,6.663212E0,4.4773073E0,3.4833167E0,4.924305E0,6.024067E0,1.3243538E1,6.355751E0,5.856096E0,6.5385804E0,1.3437002E1,6.3294144E0,1.3232788E1,4.439681E0,3.6240792E0,4.2113147E0,3.8421586E0,4.686624E0,6.602436E0,6.1767874E0,4.3065414E0,3.796938E0,5.8240676E0,1.6288221E0,3.6249754E0,6.6680574E0,4.0022554E0,6.112949E0,1.3204117E1,8.841253E0,8.377986E0,2.5232637E0,5.140666E-2,5.628324E0,5.3483963E0,1.0429349E1,5.7120175E0,5.964765E0,6.287124E0,4.5867476E0,6.6739683E0,-3.270888E-2,4.8535284E-2,-8.366574E-2,-1.4926139E-1,-1.08341955E-1,-3.1576667E-2,1.96788E-2,-8.3688915E-2,6.619495E-2,-1.5160854E-2,3.330445E-2,-1.226575E-1,1.2674707E-1,5.9142478E-2,2.9089315E-2,-1.4256188E-1,6.842392E-2,1.2495033E-1,-3.3216808E-2,6.570758E-2,-2.9284418E-2,6.92341E-2,1.0603764E-1,2.2651844E-2,9.713457E-2,-6.3577384E-2,-1.18573226E-1,-1.5237381E-2,3.61386E-2,-1.4832486E-1,1.153566E-1,-5.2758522E-2,-1.2524053E-3,8.422021E-2,1.1983647E-1,6.441705E-2,1.2423586E-1,1.4905752E-1,1.097996E-1,3.0498235E-2,1.2855764E-1,-5.4968E-2,-1.04938544E-1,7.20275E-2,-6.0935565E-3,-1.550482E-1,-8.954053E-2,-9.523467E-3,9.008577E-2,-2.6064888E-2,3.152482E-2,1.1663691E-1,-1.10370755E-1,6.099091E-2,3.2896393E-3,8.357774E-2,8.897498E-2,1.3521478E-1,-1.6136706E-1,1.0063122E-2,1.0966306E-1,-9.026032E-2],"split_indices":[3036,3025,156,1233,2080,2080,1258,24,2959,102,2080,1052,2080,2735,2080,2080,2916,2080,2080,3991,1199,3932,2981,2972,166,39,1342,1110,2080,3032,2989,1118,2080,2607,2080,26,343,24,3803,1200,2906,1362,3985,106,2965,430,953,2980,22,3032,2080,2076,1314,342,0,1327,3306,2078,2990,1363,3031,3338,2357,0,0,0,0,0,0,0,0,0,0,0,0,0,0,0,0,0,0,0,0,0,0,0,0,0,0,0,0,0,0,0,0,0,0,0,0,0,0,0,0,0,0,0,0,0,0,0,0,0,0,0,0,0,0,0,0,0,0,0,0,0,0],"split_type":[0,0,0,0,0,0,0,0,0,0,0,0,0,0,0,0,0,0,0,0,0,0,0,0,0,0,0,0,0,0,0,0,0,0,0,0,0,0,0,0,0,0,0,0,0,0,0,0,0,0,0,0,0,0,0,0,0,0,0,0,0,0,0,0,0,0,0,0,0,0,0,0,0,0,0,0,0,0,0,0,0,0,0,0,0,0,0,0,0,0,0,0,0,0,0,0,0,0,0,0,0,0,0,0,0,0,0,0,0,0,0,0,0,0,0,0,0,0,0,0,0,0,0,0,0],"sum_hessian":[1.9628393E4,1.3650334E4,5.978057E3,9.8053125E3,3.845022E3,3.9707769E3,2.0072805E3,8.911201E3,8.9411163E2,3.4363452E3,4.0867676E2,3.8324326E3,1.3834431E2,1.234402E3,7.7287854E2,3.6431128E3,5.268088E3,3.9542236E2,4.9868927E2,1.6484642E3,1.787881E3,2.7047668E2,1.3820009E2,1.5536694E3,2.2787632E3,7.91014E1,5.9242912E1,8.579943E2,3.7640768E2,7.365695E2,3.630904E1,3.0016855E3,6.4142725E2,4.781266E3,4.868216E2,3.303343E2,6.5088066E1,4.8099414E2,1.7695156E1,1.3247106E3,3.2375357E2,1.3858668E3,4.0201425E2,7.8177025E1,1.9229965E2,1.3576392E2,2.4361594E0,6.704002E2,8.832692E2,1.4637927E3,8.1497046E2,2.5958368E1,5.3143032E1,5.7776077E1,1.4668354E0,7.4598834E2,1.1200598E2,3.3243076E2,4.3976913E1,4.2088382E2,3.156857E2,2.9645039E1,6.6640015E0,2.059396E3,9.4228973E2,3.7586096E2,2.6556628E2,4.2088823E3,5.7238403E2,4.0072183E2,8.609976E1,1.6298221E2,1.673521E2,1.4867481E1,5.022059E1,2.5399666E2,2.2699747E2,3.6370401E0,1.4058116E1,5.8123425E2,7.434764E2,1.8896161E2,1.3479196E2,1.142361E3,2.4350577E2,2.9991333E2,1.0210092E2,5.2537518E1,2.5639505E1,1.3322354E2,5.907611E1,1.6707646E0,1.3409315E2,1.244451E0,1.1917083E0,4.1716028E2,2.532399E2,5.350156E2,3.482536E2,7.8197125E2,6.818214E2,7.016693E2,1.1330115E2,1.5509708E1,1.044866E1,4.7713474E1,5.429558E0,1.9110279E0,5.5865047E1,5.769533E2,1.6903502E2,7.5684555E1,3.632143E1,2.340506E2,9.8380165E1,3.707385E1,6.9030643E0,1.9107848E2,2.2980533E2,1.4075133E2,1.7493437E2,2.6183779E1,3.46126E0,4.6844893E0,1.9795121E0],"tree_param":{"num_deleted":"0","num_feature":"4096","num_nodes":"125","size_leaf_vector":"1"}},{"base_weights":[-3.0917164E-3,-2.6877707E-1,6.437685E-1,-4.3447205E-1,8.138416E-1,9.787327E-1,3.1717938E-1,-5.9613776E-1,1.2606709E-1,9.0126467E-1,-6.450702E-1,1.0590487E0,-7.597377E-1,-4.276389E-3,7.6586604E-1,-2.3018926E-1,-8.0490494E-1,6.847109E-1,-4.092876E-1,1.1292728E0,6.2448025E-1,9.517213E-2,-1.0655373E0,7.0733917E-1,1.2466102E0,7.859877E-2,-1.1796962E0,-2.2895774E-1,9.0604746E-1,8.577267E-1,-5.266262E-1,-8.7091945E-2,-1.1689763E0,-9.110825E-1,5.749926E-2,7.997036E-1,-7.831325E-1,-6.0863626E-1,3.2063577E-1,8.784224E-1,1.2881601E0,2.1972093E-1,8.910654E-1,1.0332011E0,-4.262336E-1,-3.7082127E-1,-1.4402988E0,4.5437446E-1,1.0791798E0,1.3656617E0,9.810071E-1,4.846938E-1,-1.2973762E0,-1.3174373E0,1.8902008E-1,-5.9351563E-2,-1.0436183E0,1.0075655E0,-2.3079833E-1,6.8215615E-1,1.2065339E0,-1.0278283E0,2.0894146E-1,1.4826982E-2,-5.6153625E-2,-8.867258E-2,-1.4562932E-1,-7.3971614E-2,-1.2523757E-1,2.1845115E-2,-9.186162E-2,4.7060676E-2,1.1521044E-1,-1.5368727E-2,-1.3206379E-1,-7.978036E-2,-4.6727145E-3,-1.9678177E-2,6.61349E-2,1.0751106E-1,4.3420687E-2,1.322268E-1,5.8878433E-2,-5.3106705E-3,7.7480786E-2,1.0111928E-1,1.8105609E-3,1.337177E-1,-9.8052025E-2,-8.920249E-2,7.0309184E-2,6.264784E-2,-8.875444E-2,-1.5444832E-1,5.004242E-2,7.634045E-2,-1.315846E-3,1.3067746E-1,7.2866105E-2,-3.2681443E-2,1.3775215E-1,1.0938549E-1,3.694587E-2,1.0060179E-1,-9.088472E-2,-3.8762026E-2,-1.3718162E-1,1.7798476E-2,-1.3899258E-1,9.6097164E-2,-1.1405998E-1,-3.2328572E-2,4.7709588E-2,-1.165216E-1,5.376161E-2,8.699789E-2,1.4090748E-1,-7.656089E-2,1.0270957E-1,4.2758893E-2,9.499394E-2,1.3404922E-1,8.328588E-2,-1.2753491E-1,2.1649303E-2,-6.369718E-2,7.97499E-2],"categories":[],"categories_nodes":[],"categories_segments":[],"categories_sizes":[],"default_left":[0,0,0,0,0,0,0,0,0,0,0,0,0,0,0,0,0,0,0,0,0,0,0,0,0,0,0,0,0,0,0,0,0,0,0,0,0,0,0,0,0,0,0,0,0,0,0,0,0,0,0,0,0,0,0,0,0,0,0,0,0,0,0,0,0,0,0,0,0,0,0,0,0,0,0,0,0,0,0,0,0,0,0,0,0,0,0,0,0,0,0,0,0,0,0,0,0,0,0,0,0,0,0,0,0,0,0,0,0,0,0,0,0,0,0,0,0,0,0,0,0,0,0,0,0,0,0],"id":4,"left_children":[1,3,5,7,9,11,13,15,17,19,21,23,25,27,29,31,33,35,37,39,41,43,45,47,49,51,53,55,57,59,61,63,65,67,69,71,73,75,77,79,81,83,85,87,89,91,93,95,97,99,101,103,105,107,109,111,113,115,117,119,121,123,125,-1,-1,-1,-1,-1,-1,-1,-1,-1,-1,-1,-1,-1,-1,-1,-1,-1,-1,-1,-1,-1,-1,-1,-1,-1,-1,-1,-1,-1,-1,-1,-1,-1,-1,-1,-1,-1,-1,-1,-1,-1,-1,-1,-1,-1,-1,-1,-1,-1,-1,-1,-1,-1,-1,-1,-1,-1,-1,-1,-1,-1,-1,-1,-1],"loss_changes":[3.3368545E3,2.4692324E3,6.1809424E2,1.0817935E3,2.3362573E2,3.9039087E2,4.1304584E2,7.0764014E2,7.9967004E2,1.0811401E2,3.2435104E1,1.750791E2,4.3676697E1,3.4165515E2,1.423706E2,4.522043E2,5.402158E2,2.2146802E2,1.9889154E2,3.6502075E1,8.4085205E1,1.9294973E1,1.6736183E1,8.69924E1,5.362793E1,2.4239525E1,1.5810257E1,1.8505093E2,3.8395325E1,6.754431E1,2.9684752E1,3.2644696E2,3.481653E1,3.0626904E2,1.0194414E2,1.4022852E2,3.2127247E1,1.1401022E2,5.1887245E1,3.179895E1,1.2959839E1,4.7213917E1,4.9331146E1,9.920428E0,1.4033259E1,1.3228569E1,9.415207E0,8.023028E1,2.902948E1,2.4492432E1,3.6970947E1,2.5145157E1,1.3876343E-1,8.390335E0,9.739945E0,1.5730621E2,4.5003113E1,1.5553955E1,1.9569908E1,5.037259E1,1.752887E1,1.497089E1,1.7049849E1,0E0,0E0,0E0,0E0,0E0,0E0,0E0,0E0,0E0,0E0,0E0,0E0,0E0,0E0,0E0,0E0,0E0,0E0,0E0,0E0,0E0,0E0,0E0,0E0,0E0,0E0,0E0,0E0,0E0,0E0,0E0,0E0,0E0,0E0,0E0,0E0,0E0,0E0,0E0,0E0,0E0,0E0,0E0,0E0,0E0,0E0,0E0,0E0,0E0,0E0,0E0,0E0,0E0,0E0,0E0,0E0,0E0,0E0,0E0,0E0,0E0,0E0,0E0,0E0],"parents":[2147483647,0,0,1,1,2,2,3,3,4,4,5,5,6,6,7,7,8,8,9,9,10,10,11,11,12,12,13,13,14,14,15,15,16,16,17,17,18,18,19,19,20,20,21,21,22,22,23,23,24,24,25,25,26,26,27,27,28,28,29,29,30,30,31,31,32,32,33,33,34,34,35,35,36,36,37,37,38,38,39,39,40,40,41,41,42,42,43,43,44,44,45,45,46,46,47,47,48,48,49,49,50,50,51,51,52,52,53,53,54,54,55,55,56,56,57,57,58,58,59,59,60,60,61,61,62,62],"right_children":[2,4,6,8,10,12,14,16,18,20,22,24,26,28,30,32,34,36,38,40,42,44,46,48,50,52,54,56,58,60,62,64,66,68,70,72,74,76,78,80,82,84,86,88,90,92,94,96,98,100,102,104,106,108,110,112,114,116,118,120,122,124,126,-1,-1,-1,-1,-1,-1,-1,-1,-1,-1,-1,-1,-1,-1,-1,-1,-1,-1,-1,-1,-1,-1,-1,-1,-1,-1,-1,-1,-1,-1,-1,-1,-1,-1,-1,-1,-1,-1,-1,-1,-1,-1,-1,-1,-1,-1,-1,-1,-1,-1,-1,-1,-1,-1,-1,-1,-1,-1,-1,-1,-1,-1,-1,-1],"split_conditions":[6.418471E0,6.469176E0,4.4995604E0,6.6995726E0,1.3360868E1,1.34011E1,6.4250116E0,3.632376E0,5.3455353E0,4.4332547E0,8.584299E0,6.0937133E0,1.0921826E1,6.476858E0,1.3285014E1,1.3354813E1,6.598998E0,1.3372498E1,6.045593E0,6.1625843E0,6.661283E0,2.6860769E0,3.057538E0,6.5724344E0,4.202627E0,1.3505691E1,7.6400757E0,1.3222245E1,1.3255115E1,6.626678E0,4.8613524E0,4.287407E0,1.3448553E1,1.3169685E1,1.3258011E1,6.5639944E0,1.0363227E1,7.3026876E0,5.9026656E0,4.145555E0,4.8021917E0,5.1270404E0,1.3211672E1,3.5550425E0,4.1100764E0,3.2679446E0,6.0375967E0,4.6899486E0,4.0280766E0,1.2428512E1,1.3194361E1,3.550673E0,2.297862E0,7.7815485E0,3.9426024E0,6.285727E0,6.049352E0,6.335172E0,5.7090173E0,7.269012E0,5.1447515E0,6.553989E0,5.787285E0,1.4826982E-2,-5.6153625E-2,-8.867258E-2,-1.4562932E-1,-7.3971614E-2,-1.2523757E-1,2.1845115E-2,-9.186162E-2,4.7060676E-2,1.1521044E-1,-1.5368727E-2,-1.3206379E-1,-7.978036E-2,-4.6727145E-3,-1.9678177E-2,6.61349E-2,1.0751106E-1,4.3420687E-2,1.322268E-1,5.8878433E-2,-5.3106705E-3,7.7480786E-2,1.0111928E-1,1.8105609E-3,1.337177E-1,-9.8052025E-2,-8.920249E-2,7.0309184E-2,6.264784E-2,-8.875444E-2,-1.5444832E-1,5.004242E-2,7.634045E-2,-1.315846E-3,1.3067746E-1,7.2866105E-2,-3.2681443E-2,1.3775215E-1,1.0938549E-1,3.694587E-2,1.0060179E-1,-9.088472E-2,-3.8762026E-2,-1.3718162E-1,1.7798476E-2,-1.3899258E-1,9.6097164E-2,-1.1405998E-1,-3.2328572E-2,4.7709588E-2,-1.165216E-1,5.376161E-2,8.699789E-2,1.4090748E-1,-7.656089E-2,1.0270957E-1,4.2758893E-2,9.499394E-2,1.3404922E-1,8.328588E-2,-1.2753491E-1,2.1649303E-2,-6.369718E-2,7.97499E-2],"split_indices":[2983,2969,103,3037,2080,2080,2984,151,4067,153,2012,1113,2016,2968,2080,2080,2643,2080,1390,3033,2969,10,18,2905,24,2080,3039,2080,2080,2985,1039,3995,2080,2080,2080,1059,2079,1186,2706,87,3882,3055,2080,335,950,23,1607,220,105,2080,2080,20,431,2084,692,1427,3052,2900,2962,3039,105,1363,2965,0,0,0,0,0,0,0,0,0,0,0,0,0,0,0,0,0,0,0,0,0,0,0,0,0,0,0,0,0,0,0,0,0,0,0,0,0,0,0,0,0,0,0,0,0,0,0,0,0,0,0,0,0,0,0,0,0,0,0,0,0,0,0,0],"split_type":[0,0,0,0,0,0,0,0,0,0,0,0,0,0,0,0,0,0,0,0,0,0,0,0,0,0,0,0,0,0,0,0,0,0,0,0,0,0,0,0,0,0,0,0,0,0,0,0,0,0,0,0,0,0,0,0,0,0,0,0,0,0,0,0,0,0,0,0,0,0,0,0,0,0,0,0,0,0,0,0,0,0,0,0,0,0,0,0,0,0,0,0,0,0,0,0,0,0,0,0,0,0,0,0,0,0,0,0,0,0,0,0,0,0,0,0,0,0,0,0,0,0,0,0,0,0,0],"sum_hessian":[1.9413969E4,1.3762056E4,5.651914E3,1.1935867E4,1.826188E3,2.7891953E3,2.8627188E3,9.263972E3,2.671896E3,1.7233038E3,1.0288416E2,2.6664006E3,1.22794716E2,1.6684033E3,1.1943156E3,3.3659287E3,5.898043E3,1.3073716E3,1.3645243E3,9.4322156E2,7.8008234E2,3.7550056E1,6.533411E1,9.290489E2,1.7373518E3,4.1254272E1,8.154044E1,1.3387328E3,3.296705E2,1.1153792E3,7.893641E1,2.9216765E3,4.442522E2,5.251439E3,6.466036E2,1.2128135E3,9.455816E1,1.0719353E3,2.9258902E2,3.6829224E2,5.749293E2,3.1048846E2,4.6959387E2,1.3064661E1,2.4485395E1,2.3591225E1,4.174288E1,5.5422754E2,3.7482135E2,1.1967772E3,5.405746E2,3.235346E1,8.900815E0,7.411893E1,7.4215164E0,1.108934E3,2.297988E2,3.0274933E2,2.692118E1,7.4389734E2,3.7148178E2,4.6711052E1,3.222536E1,1.9533489E3,9.683275E2,2.2616325E2,2.1808896E2,3.4981528E3,1.7532863E3,5.5574316E2,9.086042E1,6.283505E2,5.8446295E2,4.414644E1,5.0411716E1,8.016417E2,2.7029352E2,1.1633761E2,1.762514E2,2.5428192E2,1.1401032E2,5.4734515E2,2.758414E1,2.0877766E2,1.0171079E2,4.126509E2,5.6942963E1,1.1643079E1,1.4215827E0,1.7484163E1,7.0012336E0,7.9789925E0,1.5612233E1,3.980993E1,1.9329543E0,3.3329398E2,2.2093356E2,2.2560556E2,1.4921577E2,8.143066E0,1.1886342E3,4.556971E2,8.4877495E1,2.3747568E1,8.605888E0,1.1426976E0,7.758117E0,3.3594153E0,7.0759514E1,4.8708525E0,2.5506644E0,7.435178E2,3.6541617E2,2.136334E2,1.6165401E1,2.27841E2,7.4908325E1,1.9164494E1,7.756686E0,3.826906E2,3.6120673E2,2.7154773E2,9.993406E1,3.8940132E1,7.7709193E0,1.3188184E1,1.9037176E1],"tree_param":{"num_deleted":"0","num_feature":"4096","num_nodes":"127","size_leaf_vector":"1"}},{"base_weights":[3.1274664E-3,-2.7169335E-1,5.585354E-1,-4.6140626E-1,6.635913E-1,9.053163E-1,2.546775E-1,-5.7354987E-1,2.5410068E-1,7.7350175E-1,-3.6639106E-1,9.831641E-1,-5.663608E-1,1.3208499E-2,7.825268E-1,-2.4839681E-1,-8.153872E-1,4.136871E-1,-6.686343E-1,9.727605E-1,4.9253654E-1,2.382071E-1,-9.6192914E-1,6.816115E-1,1.1309401E0,-1.2478971E-1,-1.3567233E0,-1.8824711E-1,5.6664115E-1,5.573881E-1,1.0857837E0,-7.764233E-2,-9.6776927E-1,-9.2827535E-1,-2.0558898E-1,7.656138E-1,-4.0196188E-2,-8.3470744E-1,3.213033E-1,6.8470585E-1,1.126398E0,2.5725147E-1,9.0207535E-1,8.941692E-1,-5.6652445E-1,-1.0697002E0,5.48522E-1,4.167526E-1,1.0150057E0,1.1904051E0,6.8714625E-1,3.5152927E-1,-1.1441218E0,-1.4237398E0,6.449072E-2,-3.8336763E-1,3.8649827E-1,6.827881E-1,-4.815998E-1,2.6451433E-1,8.667279E-1,1.1644646E0,3.8588798E-1,-2.4081372E-2,6.5679826E-2,-6.993744E-2,-1.3281727E-1,-1.0067158E-1,-4.181785E-2,-3.3569556E-2,9.690634E-2,9.733092E-2,1.668233E-2,-3.964743E-2,4.569665E-2,-1.17549E-2,-1.0285099E-1,7.591558E-2,-1.10074416E-1,1.0033941E-1,4.0574383E-2,1.2337625E-1,8.1751555E-2,1.0751895E-2,8.801888E-2,1.0593333E-1,4.0773075E-2,1.11969605E-1,-8.0728985E-2,-8.655337E-2,6.7662075E-2,-1.13242604E-1,1.3397579E-1,-5.9899427E-2,1.3518234E-1,6.715247E-2,-1.1884979E-2,1.1386179E-1,2.515596E-2,1.22726694E-1,5.8694243E-2,8.4563814E-2,-3.9064746E-2,-3.491771E-2,9.375058E-2,-1.3466482E-1,6.183808E-2,-1.456072E-1,-1.373554E-2,-5.7653245E-2,4.989788E-3,5.568982E-2,-6.2290348E-2,8.9050464E-2,3.2040548E-2,9.060221E-3,-9.11648E-2,6.1943376E-4,7.509185E-2,1.22850515E-1,5.8067042E-2,1.211014E-1,-1.4908599E-2,-9.900048E-2,6.681228E-2],"categories":[],"categories_nodes":[],"categories_segments":[],"categories_sizes":[],"default_left":[0,0,0,0,0,0,0,0,0,0,0,0,0,0,0,0,0,0,0,0,0,0,0,0,0,0,0,0,0,0,0,0,0,0,0,0,0,0,0,0,0,0,0,0,0,0,0,0,0,0,0,0,0,0,0,0,0,0,0,0,0,0,0,0,0,0,0,0,0,0,0,0,0,0,0,0,0,0,0,0,0,0,0,0,0,0,0,0,0,0,0,0,0,0,0,0,0,0,0,0,0,0,0,0,0,0,0,0,0,0,0,0,0,0,0,0,0,0,0,0,0,0,0,0,0],"id":5,"left_children":[1,3,5,7,9,11,13,15,17,19,21,23,25,27,29,31,33,35,37,39,41,43,45,47,49,51,53,55,57,59,61,63,65,67,69,71,73,75,77,79,81,83,85,87,89,91,93,95,97,99,101,103,105,107,-1,109,111,113,115,117,119,121,123,-1,-1,-1,-1,-1,-1,-1,-1,-1,-1,-1,-1,-1,-1,-1,-1,-1,-1,-1,-1,-1,-1,-1,-1,-1,-1,-1,-1,-1,-1,-1,-1,-1,-1,-1,-1,-1,-1,-1,-1,-1,-1,-1,-1,-1,-1,-1,-1,-1,-1,-1,-1,-1,-1,-1,-1,-1,-1,-1,-1,-1,-1],"loss_changes":[2.92739E3,2.2768403E3,6.6872363E2,8.5607544E2,2.4526288E2,3.4018433E2,4.314449E2,7.249717E2,2.1321713E2,1.0900952E2,7.560328E1,1.2471094E2,5.2030025E1,2.591679E2,7.193408E1,4.8327658E2,3.6384277E2,1.9705516E2,3.5384598E1,4.9821655E1,7.815492E1,5.576428E1,1.7785957E1,8.157538E1,4.9014404E1,4.7526672E1,8.096046E0,1.9126999E2,7.585516E1,5.5200302E1,2.442163E1,3.8138925E2,7.207916E1,1.7810791E2,1.2676657E2,8.6248474E1,9.5767586E1,2.5340523E1,2.0391783E1,3.517096E1,2.3664368E1,4.8227196E1,2.2612534E1,2.3182411E1,1.8287056E1,1.6473442E1,7.90543E0,7.0926834E1,3.844516E1,3.629004E1,3.884783E1,2.780176E1,1.19501E1,1.9664078E0,0E0,1.0655235E2,7.472644E1,4.1782806E1,1.5453604E1,3.966424E1,3.0034012E1,2.4974976E1,1.8965902E1,0E0,0E0,0E0,0E0,0E0,0E0,0E0,0E0,0E0,0E0,0E0,0E0,0E0,0E0,0E0,0E0,0E0,0E0,0E0,0E0,0E0,0E0,0E0,0E0,0E0,0E0,0E0,0E0,0E0,0E0,0E0,0E0,0E0,0E0,0E0,0E0,0E0,0E0,0E0,0E0,0E0,0E0,0E0,0E0,0E0,0E0,0E0,0E0,0E0,0E0,0E0,0E0,0E0,0E0,0E0,0E0,0E0,0E0,0E0,0E0,0E0,0E0],"parents":[2147483647,0,0,1,1,2,2,3,3,4,4,5,5,6,6,7,7,8,8,9,9,10,10,11,11,12,12,13,13,14,14,15,15,16,16,17,17,18,18,19,19,20,20,21,21,22,22,23,23,24,24,25,25,26,26,27,27,28,28,29,29,30,30,31,31,32,32,33,33,34,34,35,35,36,36,37,37,38,38,39,39,40,40,41,41,42,42,43,43,44,44,45,45,46,46,47,47,48,48,49,49,50,50,51,51,52,52,53,53,55,55,56,56,57,57,58,58,59,59,60,60,61,61,62,62],"right_children":[2,4,6,8,10,12,14,16,18,20,22,24,26,28,30,32,34,36,38,40,42,44,46,48,50,52,54,56,58,60,62,64,66,68,70,72,74,76,78,80,82,84,86,88,90,92,94,96,98,100,102,104,106,108,-1,110,112,114,116,118,120,122,124,-1,-1,-1,-1,-1,-1,-1,-1,-1,-1,-1,-1,-1,-1,-1,-1,-1,-1,-1,-1,-1,-1,-1,-1,-1,-1,-1,-1,-1,-1,-1,-1,-1,-1,-1,-1,-1,-1,-1,-1,-1,-1,-1,-1,-1,-1,-1,-1,-1,-1,-1,-1,-1,-1,-1,-1,-1,-1,-1,-1,-1,-1],"split_conditions":[6.7307186E0,6.756825E0,4.904513E0,5.9941173E0,1.3307382E1,1.3393027E1,6.5524726E0,4.4234524E0,1.3252191E1,4.798965E0,3.924271E0,6.105299E0,1.3488603E1,6.6012635E0,6.828388E0,1.3299519E1,5.0607567E0,4.4183974E0,6.884906E0,5.97771E0,5.3213854E0,1.1236727E1,5.2180653E0,5.821944E0,4.502286E0,9.039741E0,6.8154063E0,6.877637E0,1.3264874E1,5.7589455E0,5.1062503E0,6.1181016E0,1.3417541E1,6.7314363E0,5.6435585E0,4.3066654E0,5.824802E0,3.4720082E0,1.34011E1,4.644375E0,4.441115E0,6.1653676E0,5.047405E0,4.0906277E0,7.527063E0,7.827893E0,5.499096E0,4.3812885E0,4.699358E0,8.357926E0,1.3211672E1,6.3360734E0,6.54622E0,7.176299E0,6.449072E-2,4.794348E0,1.3222245E1,5.449747E0,9.115031E0,6.252303E0,3.8332179E0,1.331616E1,7.441125E0,-2.4081372E-2,6.5679826E-2,-6.993744E-2,-1.3281727E-1,-1.0067158E-1,-4.181785E-2,-3.3569556E-2,9.690634E-2,9.733092E-2,1.668233E-2,-3.964743E-2,4.569665E-2,-1.17549E-2,-1.0285099E-1,7.591558E-2,-1.10074416E-1,1.0033941E-1,4.0574383E-2,1.2337625E-1,8.1751555E-2,1.0751895E-2,8.801888E-2,1.0593333E-1,4.0773075E-2,1.11969605E-1,-8.0728985E-2,-8.655337E-2,6.7662075E-2,-1.13242604E-1,1.3397579E-1,-5.9899427E-2,1.3518234E-1,6.715247E-2,-1.1884979E-2,1.1386179E-1,2.515596E-2,1.22726694E-1,5.8694243E-2,8.4563814E-2,-3.9064746E-2,-3.491771E-2,9.375058E-2,-1.3466482E-1,6.183808E-2,-1.456072E-1,-1.373554E-2,-5.7653245E-2,4.989788E-3,5.568982E-2,-6.2290348E-2,8.9050464E-2,3.2040548E-2,9.060221E-3,-9.11648E-2,6.1943376E-4,7.509185E-2,1.22850515E-1,5.8067042E-2,1.211014E-1,-1.4908599E-2,-9.900048E-2,6.681228E-2],"split_indices":[2980,2972,36,1390,2080,2080,1257,3996,2080,165,25,3164,2080,3034,1256,2080,1135,233,2857,1061,2961,2016,1349,1111,23,2075,1112,2918,2080,1326,107,1052,2080,1320,1106,3926,1391,24,2080,3875,89,2835,87,150,1119,2666,1666,26,3945,416,2080,3164,2966,3035,0,3023,2080,3866,1890,1112,3858,2080,1638,0,0,0,0,0,0,0,0,0,0,0,0,0,0,0,0,0,0,0,0,0,0,0,0,0,0,0,0,0,0,0,0,0,0,0,0,0,0,0,0,0,0,0,0,0,0,0,0,0,0,0,0,0,0,0,0,0,0,0,0,0,0],"split_type":[0,0,0,0,0,0,0,0,0,0,0,0,0,0,0,0,0,0,0,0,0,0,0,0,0,0,0,0,0,0,0,0,0,0,0,0,0,0,0,0,0,0,0,0,0,0,0,0,0,0,0,0,0,0,0,0,0,0,0,0,0,0,0,0,0,0,0,0,0,0,0,0,0,0,0,0,0,0,0,0,0,0,0,0,0,0,0,0,0,0,0,0,0,0,0,0,0,0,0,0,0,0,0,0,0,0,0,0,0,0,0,0,0,0,0,0,0,0,0,0,0,0,0,0,0],"sum_hessian":[1.9176691E4,1.28292E4,6.347492E3,1.0666181E4,2.163019E3,2.963448E3,3.384044E3,9.221124E3,1.4450569E3,1.954682E3,2.08337E2,2.8148804E3,1.4856776E2,2.322584E3,1.0614601E3,3.933933E3,5.287191E3,1.232456E3,2.1260085E2,1.1421874E3,8.124946E2,1.0367985E2,1.0465715E2,9.2760846E2,1.8872719E3,9.605838E1,5.250938E1,1.7032441E3,6.1933984E2,6.1082214E2,4.5063794E2,3.1801758E3,7.537573E2,4.4608584E3,8.263329E2,6.938106E2,5.3864545E2,1.8219276E2,3.0408073E1,3.9919464E2,7.429928E2,5.170634E2,2.9543118E2,5.7058514E1,4.6621334E1,9.795951E1,6.697641E0,5.1819116E2,4.094173E2,1.662788E3,2.2448386E2,6.591322E1,3.0145151E1,5.108763E1,1.4217526E0,1.2718098E3,4.3143423E2,5.5787494E2,6.1464874E1,3.1471466E2,2.961075E2,4.0450095E2,4.6136974E1,2.602621E3,5.7755475E2,4.3371063E2,3.2004672E2,3.8654697E3,5.9538855E2,7.445765E2,8.175638E1,5.146682E2,1.7914236E2,3.1390002E2,2.2474539E2,3.9102386E1,1.4309038E2,2.3605902E1,6.802172E0,1.8511778E2,2.1407686E2,5.491273E2,1.9386543E2,4.178092E2,9.925424E1,2.2326463E2,7.216654E1,5.0682514E1,6.3760014E0,3.7826756E1,8.7945795E0,9.599058E1,1.9689277E0,2.8626616E0,3.8349793E0,3.5098364E2,1.6720753E2,3.5194177E2,5.7475536E1,1.5660916E3,9.669647E1,1.9589282E2,2.859105E1,3.0202005E1,3.571122E1,2.7249859E1,2.8952918E0,4.970639E1,1.3812392E0,8.794084E2,3.9240146E2,3.6950528E2,6.1928932E1,3.5368597E2,2.0418898E2,2.6712194E1,3.4752678E1,2.0621208E2,1.0850258E2,1.2929427E2,1.6681325E2,3.9073227E2,1.3768674E1,7.426262E0,3.8710712E1],"tree_param":{"num_deleted":"0","num_feature":"4096","num_nodes":"125","size_leaf_vector":"1"}},{"base_weights":[4.023975E-3,-2.65384E-1,5.0667024E-1,-4.470077E-1,3.7867984E-1,8.148469E-1,1.01559386E-1,-5.473439E-1,3.144E-1,4.9317318E-1,-5.7053304E-1,8.9034164E-1,-3.1416857E-1,-1.9626677E-1,6.5480304E-1,-1.9680142E-1,-7.9385203E-1,6.391806E-3,7.866468E-1,7.491812E-1,2.4419126E-1,4.2499088E-2,-9.176968E-1,6.4364064E-1,1.1177886E0,3.7690476E-2,-1.2786874E0,-3.8332918E-1,5.393419E-1,7.8329456E-1,-4.0478754E-1,-4.363209E-1,2.784828E-1,-6.3214135E-1,-1.1301099E0,-1.6684078E-1,6.9915736E-1,8.733391E-1,-1.0340244E0,5.666527E-1,1.1132276E0,-1.449601E-2,6.5046144E-1,7.693901E-1,-6.354143E-1,-1.072563E0,1.1545881E-1,8.3597434E-1,2.0449601E-1,1.1971747E0,8.551537E-1,6.6277677E-1,-5.568475E-1,-1.3440363E0,7.067932E-2,-5.452369E-1,3.933706E-1,1.9153282E-1,8.359026E-1,4.782848E-1,9.9957305E-1,-6.328006E-1,7.5317234E-1,-1.1969219E-2,-7.3992364E-2,5.9728693E-2,-4.5412425E-2,-7.612076E-2,-3.5599177E-3,-1.1500478E-1,4.5628574E-2,-3.6373471E-3,-1.1437625E-1,9.8977186E-2,1.0817536E-2,1.2237173E-1,5.5209484E-2,5.04692E-2,-1.3231236E-1,3.2119166E-2,8.9469604E-2,1.19294025E-1,5.4526627E-2,-2.2113094E-2,5.336668E-2,4.933638E-2,1.1373055E-1,1.05954304E-1,-6.638333E-2,-1.0688496E-1,4.12765E-3,-1.23106994E-1,-5.54003E-2,8.966533E-2,-8.3349876E-2,8.8264026E-2,-2.7294135E-2,-7.1094646E-3,6.998213E-2,1.2246301E-1,5.6308668E-2,5.532257E-2,1.1316102E-1,1.2037343E-1,-1.5093212E-2,5.6410797E-2,-8.387977E-2,-4.3134164E-2,-1.4140429E-1,-6.285158E-2,5.5621322E-2,2.1098113E-2,1.12719655E-1,-2.0634871E-2,6.2411692E-2,3.9483495E-2,1.0778916E-1,2.432354E-2,9.5564924E-2,1.1473795E-1,5.0846618E-2,-7.4273474E-3,-1.0034036E-1,-4.8191175E-2,1.18426494E-1],"categories":[],"categories_nodes":[],"categories_segments":[],"categories_sizes":[],"default_left":[0,0,0,0,0,0,0,0,0,0,0,0,0,0,0,0,0,0,0,0,0,0,0,0,0,0,0,0,0,0,0,0,0,0,0,0,0,0,0,0,0,0,0,0,0,0,0,0,0,0,0,0,0,0,0,0,0,0,0,0,0,0,0,0,0,0,0,0,0,0,0,0,0,0,0,0,0,0,0,0,0,0,0,0,0,0,0,0,0,0,0,0,0,0,0,0,0,0,0,0,0,0,0,0,0,0,0,0,0,0,0,0,0,0,0,0,0,0,0,0,0,0,0,0,0],"id":6,"left_children":[1,3,5,7,9,11,13,15,17,19,21,23,25,27,29,31,33,35,37,39,41,43,45,47,49,51,53,55,57,59,61,63,65,67,69,71,73,75,77,79,81,83,85,87,89,91,93,95,97,99,101,103,105,107,-1,109,111,113,115,117,119,121,123,-1,-1,-1,-1,-1,-1,-1,-1,-1,-1,-1,-1,-1,-1,-1,-1,-1,-1,-1,-1,-1,-1,-1,-1,-1,-1,-1,-1,-1,-1,-1,-1,-1,-1,-1,-1,-1,-1,-1,-1,-1,-1,-1,-1,-1,-1,-1,-1,-1,-1,-1,-1,-1,-1,-1,-1,-1,-1,-1,-1,-1,-1],"loss_changes":[2.5728477E3,1.4471329E3,8.2762537E2,7.3733777E2,2.96044E2,3.212119E2,4.722907E2,7.365928E2,1.6350574E2,1.5464825E2,6.2478928E1,1.9732788E2,8.038977E1,2.5664093E2,1.3687656E2,4.0101212E2,2.7146753E2,8.1889E1,7.09429E1,7.891809E1,1.2958437E2,5.323109E1,3.0101212E1,1.4303174E2,3.7236816E1,6.5193085E1,9.163872E0,1.8712512E2,3.885331E1,5.855475E1,2.9291842E1,2.2503787E2,2.7601486E2,2.6038672E2,5.189795E1,6.953515E1,2.3335655E1,4.7061768E1,9.843374E0,6.408145E1,1.7402374E1,8.5551674E1,3.6124146E1,2.2370445E1,1.6448364E1,1.2718399E1,1.9522081E1,6.1239075E1,7.072252E1,2.3798828E1,3.5219086E1,3.781113E1,2.8899645E1,3.3281097E0,0E0,1.13207E2,3.4155376E1,3.0313463E1,2.133313E1,4.1641907E1,3.7357727E1,1.891183E1,1.0373437E1,0E0,0E0,0E0,0E0,0E0,0E0,0E0,0E0,0E0,0E0,0E0,0E0,0E0,0E0,0E0,0E0,0E0,0E0,0E0,0E0,0E0,0E0,0E0,0E0,0E0,0E0,0E0,0E0,0E0,0E0,0E0,0E0,0E0,0E0,0E0,0E0,0E0,0E0,0E0,0E0,0E0,0E0,0E0,0E0,0E0,0E0,0E0,0E0,0E0,0E0,0E0,0E0,0E0,0E0,0E0,0E0,0E0,0E0,0E0,0E0,0E0,0E0],"parents":[2147483647,0,0,1,1,2,2,3,3,4,4,5,5,6,6,7,7,8,8,9,9,10,10,11,11,12,12,13,13,14,14,15,15,16,16,17,17,18,18,19,19,20,20,21,21,22,22,23,23,24,24,25,25,26,26,27,27,28,28,29,29,30,30,31,31,32,32,33,33,34,34,35,35,36,36,37,37,38,38,39,39,40,40,41,41,42,42,43,43,44,44,45,45,46,46,47,47,48,48,49,49,50,50,51,51,52,52,53,53,55,55,56,56,57,57,58,58,59,59,60,60,61,61,62,62],"right_children":[2,4,6,8,10,12,14,16,18,20,22,24,26,28,30,32,34,36,38,40,42,44,46,48,50,52,54,56,58,60,62,64,66,68,70,72,74,76,78,80,82,84,86,88,90,92,94,96,98,100,102,104,106,108,-1,110,112,114,116,118,120,122,124,-1,-1,-1,-1,-1,-1,-1,-1,-1,-1,-1,-1,-1,-1,-1,-1,-1,-1,-1,-1,-1,-1,-1,-1,-1,-1,-1,-1,-1,-1,-1,-1,-1,-1,-1,-1,-1,-1,-1,-1,-1,-1,-1,-1,-1,-1,-1,-1,-1,-1,-1,-1,-1,-1,-1,-1,-1,-1,-1,-1,-1,-1],"split_conditions":[6.377529E0,6.7782636E0,5.0205345E0,6.2101336E0,1.3303617E1,1.3360868E1,6.558386E0,3.7385688E0,6.369938E0,4.2009134E0,1.0928563E1,6.326936E0,1.3488603E1,7.015844E0,1.3246494E1,6.487787E0,1.316754E1,6.208012E0,1.3378707E1,5.942077E0,5.7165008E0,3.7889106E0,4.691704E0,5.1714177E0,4.363369E0,1.11510315E1,4.891188E0,6.2285624E0,5.9648495E0,5.797084E0,6.851805E0,9.719726E0,5.4495344E0,6.1138067E0,5.498309E0,1.329553E1,4.9461036E0,4.564649E0,2.3812108E0,6.7563524E0,4.35032E0,7.2284E0,5.6116233E0,3.6070848E0,6.7556806E0,4.6261644E0,4.7588015E0,8.467786E0,5.697712E0,8.376596E0,5.9896197E0,4.0536113E0,9.146392E0,2.2032197E0,7.067932E-2,5.8828425E0,5.849678E0,4.76816E0,6.9410415E0,6.2387714E0,5.156804E0,1.0817524E1,2.8017242E0,-1.1969219E-2,-7.3992364E-2,5.9728693E-2,-4.5412425E-2,-7.612076E-2,-3.5599177E-3,-1.1500478E-1,4.5628574E-2,-3.6373471E-3,-1.1437625E-1,9.8977186E-2,1.0817536E-2,1.2237173E-1,5.5209484E-2,5.04692E-2,-1.3231236E-1,3.2119166E-2,8.9469604E-2,1.19294025E-1,5.4526627E-2,-2.2113094E-2,5.336668E-2,4.933638E-2,1.1373055E-1,1.05954304E-1,-6.638333E-2,-1.0688496E-1,4.12765E-3,-1.23106994E-1,-5.54003E-2,8.966533E-2,-8.3349876E-2,8.8264026E-2,-2.7294135E-2,-7.1094646E-3,6.998213E-2,1.2246301E-1,5.6308668E-2,5.532257E-2,1.1316102E-1,1.2037343E-1,-1.5093212E-2,5.6410797E-2,-8.387977E-2,-4.3134164E-2,-1.4140429E-1,-6.285158E-2,5.5621322E-2,2.1098113E-2,1.12719655E-1,-2.0634871E-2,6.2411692E-2,3.9483495E-2,1.0778916E-1,2.432354E-2,9.5564924E-2,1.1473795E-1,5.0846618E-2,-7.4273474E-3,-1.0034036E-1,-4.8191175E-2,1.18426494E-1],"split_indices":[3045,1253,27,2706,2080,2080,3046,151,2707,104,2016,1051,2080,1254,2080,3042,2080,2735,2080,1048,3051,3862,2820,93,3945,2016,1342,2705,3096,3030,1388,2145,3934,2576,2993,2080,2694,4006,396,3038,3925,1253,3026,212,1254,1225,422,352,2964,4064,3096,3932,2078,3947,0,1044,3027,2957,991,2922,362,2016,187,0,0,0,0,0,0,0,0,0,0,0,0,0,0,0,0,0,0,0,0,0,0,0,0,0,0,0,0,0,0,0,0,0,0,0,0,0,0,0,0,0,0,0,0,0,0,0,0,0,0,0,0,0,0,0,0,0,0,0,0,0,0],"split_type":[0,0,0,0,0,0,0,0,0,0,0,0,0,0,0,0,0,0,0,0,0,0,0,0,0,0,0,0,0,0,0,0,0,0,0,0,0,0,0,0,0,0,0,0,0,0,0,0,0,0,0,0,0,0,0,0,0,0,0,0,0,0,0,0,0,0,0,0,0,0,0,0,0,0,0,0,0,0,0,0,0,0,0,0,0,0,0,0,0,0,0,0,0,0,0,0,0,0,0,0,0,0,0,0,0,0,0,0,0,0,0,0,0,0,0,0,0,0,0,0,0,0,0,0,0],"sum_hessian":[1.8997465E4,1.2368615E4,6.6288486E3,9.648171E3,2.7204438E3,3.764273E3,2.864576E3,8.525045E3,1.1231262E3,2.4280542E3,2.9238965E2,3.5285388E3,2.3573416E2,1.8625563E3,1.00201965E3,3.5205322E3,5.0045127E3,6.8038196E2,4.4274426E2,1.1961453E3,1.2319089E3,1.06032265E2,1.8635736E2,1.6944634E3,1.8340753E3,1.7342805E2,6.2306095E1,1.4853232E3,3.77233E2,8.938834E2,1.08136246E2,2.3409116E3,1.1796205E3,3.381288E3,1.6232246E3,5.4488696E2,1.3549498E2,4.2311758E2,1.9626684E1,7.9839575E2,3.9774954E2,7.532507E2,4.786583E2,5.1102642E1,5.4929623E1,1.6203131E2,2.4326052E1,1.1777407E3,5.167227E2,1.4056376E3,4.284377E2,8.448612E1,8.894193E1,6.0633507E1,1.6725897E0,1.2293549E3,2.5596837E2,1.7437279E2,2.028602E2,3.7219772E2,5.2168567E2,9.072514E1,1.7411102E1,1.1465568E3,1.194355E3,8.2206995E2,3.575505E2,2.779621E3,6.0166705E2,1.6033486E3,1.9875992E1,4.81606E2,6.3280964E1,9.03773E1,4.5117683E1,2.0103802E2,2.2207956E2,2.9863322E0,1.6640352E1,4.5781268E2,3.4058307E2,3.478315E2,4.9918053E1,5.4747253E2,2.0577814E2,3.6340576E2,1.1525252E2,4.2715675E1,8.386967E0,3.3129765E1,2.179986E1,1.2304613E2,3.898519E1,1.3372637E1,1.0953415E1,1.1303757E3,4.736499E1,3.3255252E2,1.8417018E2,1.3464081E3,5.9229538E1,2.0621935E2,2.2221838E2,5.0460457E1,3.4025665E1,1.7674059E1,7.1267876E1,4.829631E0,5.5803875E1,1.1433383E3,8.601661E1,2.0604439E2,4.992399E1,9.110206E1,8.327073E1,7.280035E1,1.3005986E2,2.504086E2,1.2178912E2,3.9997156E2,1.2171413E2,3.6666428E1,5.4058712E1,4.474302E0,1.2936801E1],"tree_param":{"num_deleted":"0","num_feature":"4096","num_nodes":"125","size_leaf_vector":"1"}},{"base_weights":[-9.137883E-4,-2.3808508E-1,5.059211E-1,-4.2748675E-1,2.4961717E-1,8.1792897E-1,1.0843984E-1,-1.2372214E-1,-6.721456E-1,6.904922E-2,7.408728E-1,8.698771E-1,-7.063786E-1,-1.7634578E-1,5.8926016E-1,-3.6749876E-1,3.231337E-1,-7.587576E-1,2.5289804E-1,4.8529273E-1,-1.98345E-1,9.409005E-1,2.7093473E-1,6.8423414E-1,1.0786898E0,9.066112E-2,-1.0447145E0,-4.0283647E-1,3.5570773E-1,6.584949E-1,-7.390821E-1,-5.091904E-1,3.6941957E-1,4.5156762E-1,-8.7134457E-1,-8.6111295E-1,-2.4133722E-1,3.8867095E-1,-8.1306976E-1,6.018534E-1,-7.385813E-1,-4.07694E-1,2.8629884E-1,9.846736E-1,-5.9838676E-1,3.2348135E-3,8.438399E-1,8.456629E-1,3.4484193E-1,1.108836E0,3.377687E-1,7.1841323E-1,-1.1014583E0,-1.1545962E0,4.2659217E-1,-5.7416475E-1,3.0925786E-1,4.7105893E-1,-1.0612283E0,3.8063037E-1,9.5360947E-1,3.8211316E-1,-9.748586E-1,-2.3227347E-2,-8.409306E-2,4.8182573E-2,-8.7476306E-2,6.463958E-2,-4.126474E-2,-9.986542E-3,-1.0765474E-1,-9.0058245E-2,1.3083053E-2,-3.998868E-2,5.085946E-2,6.7519136E-3,8.2991E-2,-9.353646E-2,9.856058E-2,7.693059E-2,-1.0282698E-2,-2.6650494E-2,-1.268666E-1,-2.7427947E-2,-1.0232692E-1,-1.1010992E-2,5.757727E-2,8.111435E-2,1.2744659E-1,-1.186376E-1,6.296148E-2,-1.3877012E-2,9.811302E-2,-4.4748098E-2,9.9820666E-2,5.4888405E-2,1.01558864E-1,1.485835E-2,8.8892646E-2,1.1491313E-1,7.506323E-2,-7.672904E-2,6.265782E-2,1.3173412E-1,-6.943517E-2,-1.2979689E-1,3.970504E-2,4.791036E-3,-1.275951E-1,1.2624426E-1,-1.02546334E-1,-6.940713E-2,3.1101769E-2,4.507274E-2,-5.218711E-2,1.3864696E-2,8.1697345E-2,-1.3167863E-1,1.0078921E-1,1.178326E-2,8.231936E-2,4.2955484E-2,1.0349244E-1,-7.752589E-2,1.2053943E-1,-1.1343362E-1,7.0570216E-2],"categories":[],"categories_nodes":[],"categories_segments":[],"categories_sizes":[],"default_left":[0,0,0,0,0,0,0,0,0,0,0,0,0,0,0,0,0,0,0,0,0,0,0,0,0,0,0,0,0,0,0,0,0,0,0,0,0,0,0,0,0,0,0,0,0,0,0,0,0,0,0,0,0,0,0,0,0,0,0,0,0,0,0,0,0,0,0,0,0,0,0,0,0,0,0,0,0,0,0,0,0,0,0,0,0,0,0,0,0,0,0,0,0,0,0,0,0,0,0,0,0,0,0,0,0,0,0,0,0,0,0,0,0,0,0,0,0,0,0,0,0,0,0,0,0,0,0],"id":7,"left_children":[1,3,5,7,9,11,13,15,17,19,21,23,25,27,29,31,33,35,37,39,41,43,45,47,49,51,53,55,57,59,61,63,65,67,69,71,73,75,77,79,81,83,85,87,89,91,93,95,97,99,101,103,105,107,109,111,113,115,117,119,121,123,125,-1,-1,-1,-1,-1,-1,-1,-1,-1,-1,-1,-1,-1,-1,-1,-1,-1,-1,-1,-1,-1,-1,-1,-1,-1,-1,-1,-1,-1,-1,-1,-1,-1,-1,-1,-1,-1,-1,-1,-1,-1,-1,-1,-1,-1,-1,-1,-1,-1,-1,-1,-1,-1,-1,-1,-1,-1,-1,-1,-1,-1,-1,-1,-1],"loss_changes":[2.2519019E3,1.1789314E3,7.405199E2,6.8308203E2,3.1666068E2,2.6552563E2,3.5986798E2,4.4696884E2,4.0810693E2,2.9080038E2,8.9940735E1,1.2469116E2,2.9975864E1,1.9907431E2,9.038791E1,2.773688E2,2.2260417E2,2.4635986E2,6.351038E1,1.4622174E2,1.6153795E2,4.5911255E1,4.4148933E1,9.3701965E1,3.3599976E1,2.619064E1,1.3081329E1,1.4150089E2,8.1150246E1,7.586902E1,1.3298586E1,2.043794E2,6.0374237E1,2.2058292E2,2.2208473E1,1.5227612E2,9.1789444E1,5.4922966E1,1.1844402E1,1.1024124E2,2.2010666E1,9.1000275E1,5.5203396E1,3.1875366E1,1.4625599E1,2.7521553E1,1.8721039E1,5.803882E1,5.909662E1,2.0227783E1,1.9919304E1,2.0238953E1,4.0791273E0,1.0674004E1,8.748473E0,9.9357086E1,2.6725939E1,5.243376E1,2.113198E1,5.5784645E1,1.8738373E1,9.714377E0,1.170401E1,0E0,0E0,0E0,0E0,0E0,0E0,0E0,0E0,0E0,0E0,0E0,0E0,0E0,0E0,0E0,0E0,0E0,0E0,0E0,0E0,0E0,0E0,0E0,0E0,0E0,0E0,0E0,0E0,0E0,0E0,0E0,0E0,0E0,0E0,0E0,0E0,0E0,0E0,0E0,0E0,0E0,0E0,0E0,0E0,0E0,0E0,0E0,0E0,0E0,0E0,0E0,0E0,0E0,0E0,0E0,0E0,0E0,0E0,0E0,0E0,0E0,0E0,0E0,0E0],"parents":[2147483647,0,0,1,1,2,2,3,3,4,4,5,5,6,6,7,7,8,8,9,9,10,10,11,11,12,12,13,13,14,14,15,15,16,16,17,17,18,18,19,19,20,20,21,21,22,22,23,23,24,24,25,25,26,26,27,27,28,28,29,29,30,30,31,31,32,32,33,33,34,34,35,35,36,36,37,37,38,38,39,39,40,40,41,41,42,42,43,43,44,44,45,45,46,46,47,47,48,48,49,49,50,50,51,51,52,52,53,53,54,54,55,55,56,56,57,57,58,58,59,59,60,60,61,61,62,62],"right_children":[2,4,6,8,10,12,14,16,18,20,22,24,26,28,30,32,34,36,38,40,42,44,46,48,50,52,54,56,58,60,62,64,66,68,70,72,74,76,78,80,82,84,86,88,90,92,94,96,98,100,102,104,106,108,110,112,114,116,118,120,122,124,126,-1,-1,-1,-1,-1,-1,-1,-1,-1,-1,-1,-1,-1,-1,-1,-1,-1,-1,-1,-1,-1,-1,-1,-1,-1,-1,-1,-1,-1,-1,-1,-1,-1,-1,-1,-1,-1,-1,-1,-1,-1,-1,-1,-1,-1,-1,-1,-1,-1,-1,-1,-1,-1,-1,-1,-1,-1,-1,-1,-1,-1,-1,-1,-1],"split_conditions":[6.4126973E0,4.897296E0,5.292693E0,3.917281E0,5.4039707E0,1.3426706E1,5.5809054E0,6.490819E0,6.353794E0,4.258508E0,3.8207104E0,6.732116E0,1.0921826E1,7.131561E0,1.3320484E1,6.554215E0,1.336623E1,6.5030985E0,1.3277975E1,1.3360868E1,6.285473E0,1.3409369E1,6.3595467E0,4.2354107E0,4.797009E0,1.3488603E1,5.1260443E0,7.120339E0,1.3303617E1,6.1543946E0,5.8826756E0,9.829105E0,1.34011E1,5.33109E0,8.59734E0,6.280213E0,6.681139E0,6.4073405E0,5.7397265E0,4.51315E0,1.3459927E1,1.3224945E1,6.2229767E0,5.2771225E0,4.6887474E0,7.1823206E0,6.531063E0,6.1076145E0,6.6332064E0,8.169487E0,3.967641E0,5.2272243E0,7.295599E0,2.857239E0,5.373964E0,6.7487144E0,1.3238172E1,6.2449365E0,6.6894417E0,6.5942416E0,5.3856916E0,4.9810033E0,4.6591105E0,-2.3227347E-2,-8.409306E-2,4.8182573E-2,-8.7476306E-2,6.463958E-2,-4.126474E-2,-9.986542E-3,-1.0765474E-1,-9.0058245E-2,1.3083053E-2,-3.998868E-2,5.085946E-2,6.7519136E-3,8.2991E-2,-9.353646E-2,9.856058E-2,7.693059E-2,-1.0282698E-2,-2.6650494E-2,-1.268666E-1,-2.7427947E-2,-1.0232692E-1,-1.1010992E-2,5.757727E-2,8.111435E-2,1.2744659E-1,-1.186376E-1,6.296148E-2,-1.3877012E-2,9.811302E-2,-4.4748098E-2,9.9820666E-2,5.4888405E-2,1.01558864E-1,1.485835E-2,8.8892646E-2,1.1491313E-1,7.506323E-2,-7.672904E-2,6.265782E-2,1.3173412E-1,-6.943517E-2,-1.2979689E-1,3.970504E-2,4.791036E-3,-1.275951E-1,1.2624426E-1,-1.02546334E-1,-6.940713E-2,3.1101769E-2,4.507274E-2,-5.218711E-2,1.3864696E-2,8.1697345E-2,-1.3167863E-1,1.0078921E-1,1.178326E-2,8.231936E-2,4.2955484E-2,1.0349244E-1,-7.752589E-2,1.2053943E-1,-1.1343362E-1,7.0570216E-2],"split_indices":[1052,1105,100,152,2991,2080,2926,2979,2706,154,3983,3044,2144,2979,2080,2973,2080,2920,2080,2080,1127,2080,2860,3991,4011,2080,2690,2973,2080,1389,1969,2015,2080,3939,2083,3032,2921,2707,2618,89,2080,2080,3034,3025,1225,2668,2977,3172,1114,224,1345,3938,3036,360,3558,1452,2080,1062,2985,1114,1237,1671,3142,0,0,0,0,0,0,0,0,0,0,0,0,0,0,0,0,0,0,0,0,0,0,0,0,0,0,0,0,0,0,0,0,0,0,0,0,0,0,0,0,0,0,0,0,0,0,0,0,0,0,0,0,0,0,0,0,0,0,0,0,0,0,0,0],"split_type":[0,0,0,0,0,0,0,0,0,0,0,0,0,0,0,0,0,0,0,0,0,0,0,0,0,0,0,0,0,0,0,0,0,0,0,0,0,0,0,0,0,0,0,0,0,0,0,0,0,0,0,0,0,0,0,0,0,0,0,0,0,0,0,0,0,0,0,0,0,0,0,0,0,0,0,0,0,0,0,0,0,0,0,0,0,0,0,0,0,0,0,0,0,0,0,0,0,0,0,0,0,0,0,0,0,0,0,0,0,0,0,0,0,0,0,0,0,0,0,0,0,0,0,0,0,0,0],"sum_hessian":[1.873158E4,1.2760765E4,5.9708164E3,9.191372E3,3.5693928E3,3.344473E3,2.6263433E3,4.101063E3,5.0903086E3,2.6108708E3,9.585219E2,3.2346655E3,1.0980752E2,1.6498091E3,9.7653406E2,2.6536013E3,1.4474615E3,4.654671E3,4.3563766E2,1.0208826E3,1.5899883E3,6.716388E2,2.8688312E2,1.7145962E3,1.5200692E3,3.29402E1,7.686732E1,1.1573695E3,4.9243958E2,9.286368E2,4.7897327E1,2.2259197E3,4.2768164E2,1.3074974E3,1.3996411E2,3.8854019E3,7.6926917E2,3.8698285E2,4.8654827E1,9.325734E2,8.830918E1,1.1104653E3,4.7952298E2,6.5341766E2,1.8221119E1,1.9620743E2,9.067569E1,1.1609225E3,5.536737E2,1.4601624E3,5.9906925E1,2.1838003E1,1.1102198E1,7.172587E1,5.14145E0,9.33069E2,2.2430061E2,4.5598584E2,3.645375E1,4.794765E2,4.4916028E2,8.214413E0,3.9682915E1,1.2141335E3,1.01178625E3,3.9280615E2,3.4875484E1,1.0671677E3,2.403297E2,2.971909E1,1.1024502E2,3.7368064E3,1.4859557E2,6.3540045E2,1.3386874E2,2.2463634E2,1.623465E2,4.600673E1,2.6480992E0,7.53442E2,1.7913145E2,4.7505272E1,4.0803913E1,9.1385065E2,1.9661465E2,2.0264217E2,2.7688083E2,4.1106656E2,2.4235112E2,1.234433E1,5.8767896E0,1.7207733E2,2.413009E1,9.4793625E0,8.119633E1,4.2422864E2,7.3669385E2,4.0783527E2,1.4583844E2,1.3105292E3,1.4963321E2,1.2069435E1,4.783749E1,1.5383754E1,6.4542494E0,9.933386E0,1.1688122E0,6.630387E0,6.509548E1,3.3459783E0,1.7954714E0,8.219446E2,1.111244E2,1.9206602E2,3.223458E1,2.332456E2,2.2274022E2,3.2769924E1,3.6838279E0,3.0163144E2,1.7784505E2,6.117636E1,3.8798392E2,3.4386601E0,4.7757525E0,3.6540417E1,3.1424959E0],"tree_param":{"num_deleted":"0","num_feature":"4096","num_nodes":"127","size_leaf_vector":"1"}},{"base_weights":[5.901379E-4,-1.9950353E-1,5.4570717E-1,-3.8662463E-1,2.4000238E-1,7.7219623E-1,1.0950184E-1,-7.927468E-2,-5.898926E-1,3.516748E-1,-5.9653574E-1,8.4179485E-1,-2.8807425E-1,-1.1194944E-1,6.949044E-1,-3.4189242E-1,3.3007455E-1,-7.0039403E-1,4.3872576E-2,6.3444674E-1,5.3117625E-2,-3.2126558E-1,-1.1615899E0,5.9113365E-1,1.0284084E0,4.1118154E-1,-6.871969E-1,-3.054262E-1,4.8496854E-1,4.0240383E-1,9.4172746E-1,-1.4419825E-1,-7.9358524E-1,5.445965E-1,-2.3206782E-1,-8.276504E-1,-3.0155796E-1,1.7845294E-1,-9.281271E-1,8.0944693E-1,1.3917558E-1,-1.4561848E-1,6.602445E-1,2.3911938E-1,-7.5754505E-1,-1.1924895E0,5.3068984E-1,7.400737E-1,1.5751018E-1,1.0709482E0,4.3951833E-1,1.0154469E0,-4.3369433E-1,-9.7204936E-1,3.941875E-1,-5.0956845E-1,2.9046303E-1,5.6400347E-1,-9.748984E-1,7.8572804E-1,4.4359267E-2,1.0107776E0,-1.15391605E-1,7.076E-3,-6.5549076E-2,-5.6557477E-2,-1.1677436E-1,6.311431E-2,-1.1382436E-1,-4.852491E-2,5.3617455E-2,-9.245367E-2,-4.2580936E-2,-1.10400105E-2,-7.266962E-2,-2.0228373E-3,7.862384E-2,-1.0578636E-1,5.4739174E-2,8.789966E-2,-5.3152703E-3,-2.0647954E-2,6.705534E-2,-3.490699E-2,3.5035834E-2,9.001876E-2,7.280787E-3,6.3466206E-2,-5.728501E-2,-1.0015365E-1,1.1593695E-2,-4.7489416E-2,-1.2657826E-1,-7.550856E-2,1.4056131E-1,4.852169E-2,9.5163964E-2,-6.478447E-3,8.786421E-2,1.12297826E-1,7.8032866E-2,-1.1917735E-2,7.657873E-2,1.1897089E-1,-1.02659576E-1,-6.392515E-2,1.4542282E-1,3.7087396E-2,-1.0778643E-1,7.502895E-2,-1.03289746E-1,-6.5047614E-2,1.8508634E-2,7.532204E-2,-9.129337E-3,2.1417547E-2,8.5935324E-2,-1.2938659E-1,1.05288975E-1,2.13382E-2,1.02631524E-1,-3.1420417E-2,6.336301E-2,1.1882782E-1,5.7234045E-2,-6.206739E-2,1.3919178E-1],"categories":[],"categories_nodes":[],"categories_segments":[],"categories_sizes":[],"default_left":[0,0,0,0,0,0,0,0,0,0,0,0,0,0,0,0,0,0,0,0,0,0,0,0,0,0,0,0,0,0,0,0,0,0,0,0,0,0,0,0,0,0,0,0,0,0,0,0,0,0,0,0,0,0,0,0,0,0,0,0,0,0,0,0,0,0,0,0,0,0,0,0,0,0,0,0,0,0,0,0,0,0,0,0,0,0,0,0,0,0,0,0,0,0,0,0,0,0,0,0,0,0,0,0,0,0,0,0,0,0,0,0,0,0,0,0,0,0,0,0,0,0,0,0,0,0,0],"id":8,"left_children":[1,3,5,7,9,11,13,15,17,19,21,23,25,27,29,31,33,35,37,39,41,43,45,47,49,51,53,55,57,59,61,63,65,67,69,71,73,75,77,79,81,83,85,87,89,91,93,95,97,99,101,103,105,107,109,111,113,115,117,119,121,123,125,-1,-1,-1,-1,-1,-1,-1,-1,-1,-1,-1,-1,-1,-1,-1,-1,-1,-1,-1,-1,-1,-1,-1,-1,-1,-1,-1,-1,-1,-1,-1,-1,-1,-1,-1,-1,-1,-1,-1,-1,-1,-1,-1,-1,-1,-1,-1,-1,-1,-1,-1,-1,-1,-1,-1,-1,-1,-1,-1,-1,-1,-1,-1,-1],"loss_changes":[2.0164961E3,1.1122661E3,4.9033386E2,5.925515E2,3.7751837E2,2.4134473E2,2.201643E2,4.0616513E2,3.9986438E2,3.008416E2,7.367151E1,1.4282178E2,5.66598E1,1.4250137E2,3.3271088E1,2.0539874E2,1.7820331E2,2.4650317E2,1.1117317E2,1.5851837E2,2.0939484E2,7.877896E1,8.767075E0,8.4548096E1,4.3527466E1,3.823435E1,4.011218E1,1.1346083E2,3.5407394E1,2.948087E1,1.8513977E1,1.7612119E2,5.9093292E1,1.5642853E2,7.973028E1,1.4307935E2,9.561915E1,9.012812E1,2.0366447E1,8.1168335E1,8.8129196E1,1.3207637E2,6.0256836E1,4.5804523E1,3.8690697E1,7.449875E0,4.9778366E0,5.213617E1,5.3987183E1,2.3881348E1,2.1969393E1,1.6686447E1,1.3180963E1,1.4947174E1,1.4802049E1,6.806735E1,4.2171318E1,2.9492752E1,1.1634909E1,1.4074348E1,2.3917345E1,1.7739594E1,1.3317165E1,0E0,0E0,0E0,0E0,0E0,0E0,0E0,0E0,0E0,0E0,0E0,0E0,0E0,0E0,0E0,0E0,0E0,0E0,0E0,0E0,0E0,0E0,0E0,0E0,0E0,0E0,0E0,0E0,0E0,0E0,0E0,0E0,0E0,0E0,0E0,0E0,0E0,0E0,0E0,0E0,0E0,0E0,0E0,0E0,0E0,0E0,0E0,0E0,0E0,0E0,0E0,0E0,0E0,0E0,0E0,0E0,0E0,0E0,0E0,0E0,0E0,0E0,0E0,0E0],"parents":[2147483647,0,0,1,1,2,2,3,3,4,4,5,5,6,6,7,7,8,8,9,9,10,10,11,11,12,12,13,13,14,14,15,15,16,16,17,17,18,18,19,19,20,20,21,21,22,22,23,23,24,24,25,25,26,26,27,27,28,28,29,29,30,30,31,31,32,32,33,33,34,34,35,35,36,36,37,37,38,38,39,39,40,40,41,41,42,42,43,43,44,44,45,45,46,46,47,47,48,48,49,49,50,50,51,51,52,52,53,53,54,54,55,55,56,56,57,57,58,58,59,59,60,60,61,61,62,62],"right_children":[2,4,6,8,10,12,14,16,18,20,22,24,26,28,30,32,34,36,38,40,42,44,46,48,50,52,54,56,58,60,62,64,66,68,70,72,74,76,78,80,82,84,86,88,90,92,94,96,98,100,102,104,106,108,110,112,114,116,118,120,122,124,126,-1,-1,-1,-1,-1,-1,-1,-1,-1,-1,-1,-1,-1,-1,-1,-1,-1,-1,-1,-1,-1,-1,-1,-1,-1,-1,-1,-1,-1,-1,-1,-1,-1,-1,-1,-1,-1,-1,-1,-1,-1,-1,-1,-1,-1,-1,-1,-1,-1,-1,-1,-1,-1,-1,-1,-1,-1,-1,-1,-1,-1,-1,-1,-1],"split_conditions":[6.5311346E0,4.871546E0,5.299391E0,4.0408626E0,1.3291978E1,1.3354813E1,6.13356E0,6.6200695E0,6.7029285E0,4.336258E0,1.3417541E1,6.3113537E0,1.093633E1,6.275538E0,7.4456043E0,1.3232788E1,5.451584E0,4.731346E0,1.3268123E1,4.639793E0,5.757664E0,3.7118187E0,6.965179E0,4.483564E0,8.258681E0,3.7139444E0,5.44976E0,6.747797E0,1.332507E1,4.8757405E0,1.3288555E1,3.8037808E0,1.3372498E1,1.3448553E1,5.9544134E0,6.8870955E0,1.3158688E1,6.753039E0,6.8251452E0,8.280565E0,5.1715693E0,5.2660704E0,4.6933365E0,3.9952857E0,6.0959992E0,2.8778572E0,4.267477E0,5.20849E0,7.0070395E0,4.565489E0,4.6346045E0,1.3526291E1,6.907537E0,2.3164165E0,1.3488603E1,6.5785594E0,5.819409E0,5.3776045E0,6.7264905E0,5.5745206E0,7.3078732E0,4.9244823E0,7.677144E0,7.076E-3,-6.5549076E-2,-5.6557477E-2,-1.1677436E-1,6.311431E-2,-1.1382436E-1,-4.852491E-2,5.3617455E-2,-9.245367E-2,-4.2580936E-2,-1.10400105E-2,-7.266962E-2,-2.0228373E-3,7.862384E-2,-1.0578636E-1,5.4739174E-2,8.789966E-2,-5.3152703E-3,-2.0647954E-2,6.705534E-2,-3.490699E-2,3.5035834E-2,9.001876E-2,7.280787E-3,6.3466206E-2,-5.728501E-2,-1.0015365E-1,1.1593695E-2,-4.7489416E-2,-1.2657826E-1,-7.550856E-2,1.4056131E-1,4.852169E-2,9.5163964E-2,-6.478447E-3,8.786421E-2,1.12297826E-1,7.8032866E-2,-1.1917735E-2,7.657873E-2,1.1897089E-1,-1.02659576E-1,-6.392515E-2,1.4542282E-1,3.7087396E-2,-1.0778643E-1,7.502895E-2,-1.03289746E-1,-6.5047614E-2,1.8508634E-2,7.532204E-2,-9.129337E-3,2.1417547E-2,8.5935324E-2,-1.2938659E-1,1.05288975E-1,2.13382E-2,1.02631524E-1,-3.1420417E-2,6.336301E-2,1.1882782E-1,5.7234045E-2,-6.206739E-2,1.3919178E-1],"split_indices":[3035,1200,155,90,2080,2080,2965,2978,2579,4072,2080,3099,2016,1363,2977,2080,3806,1041,2080,102,1108,22,3048,105,32,106,2556,1052,2080,1599,2080,86,2080,2080,998,3038,2080,1582,2903,4000,1199,1106,20,153,3031,3993,659,1108,2971,3946,1042,2080,1239,4075,2080,2984,4004,2927,3048,1299,3041,149,2666,0,0,0,0,0,0,0,0,0,0,0,0,0,0,0,0,0,0,0,0,0,0,0,0,0,0,0,0,0,0,0,0,0,0,0,0,0,0,0,0,0,0,0,0,0,0,0,0,0,0,0,0,0,0,0,0,0,0,0,0,0,0,0,0],"split_type":[0,0,0,0,0,0,0,0,0,0,0,0,0,0,0,0,0,0,0,0,0,0,0,0,0,0,0,0,0,0,0,0,0,0,0,0,0,0,0,0,0,0,0,0,0,0,0,0,0,0,0,0,0,0,0,0,0,0,0,0,0,0,0,0,0,0,0,0,0,0,0,0,0,0,0,0,0,0,0,0,0,0,0,0,0,0,0,0,0,0,0,0,0,0,0,0,0,0,0,0,0,0,0,0,0,0,0,0,0,0,0,0,0,0,0,0,0,0,0,0,0,0,0,0,0,0,0],"sum_hessian":[1.8485336E4,1.3522373E4,4.9629624E3,9.484455E3,4.0379185E3,3.2662642E3,1.6966986E3,3.7761472E3,5.7083076E3,3.562877E3,4.7504144E2,3.0652595E3,2.0100465E2,1.2316049E3,4.6509366E2,2.3004558E3,1.4756913E3,4.8607046E3,8.476032E2,1.8292333E3,1.7336436E3,3.2048395E2,1.545575E2,1.3099243E3,1.7553351E3,7.302898E1,1.2797568E2,9.304953E2,3.0110962E2,2.140553E2,2.5103838E2,1.6010413E3,6.994147E2,1.0681141E3,4.075771E2,3.6841345E3,1.1765702E3,7.4523627E2,1.0236692E2,1.3511726E3,4.780607E2,1.3066776E3,4.2696597E2,1.4048633E2,1.7999762E2,1.5207603E2,2.4814541E0,9.744989E2,3.3542545E2,1.6363136E3,1.1902149E2,4.2459526E1,3.056945E1,1.0137352E2,2.6602158E1,6.9317084E2,2.3732451E2,2.8622736E2,1.4882239E1,1.0280128E2,1.1125402E2,2.3568732E2,1.5351057E1,1.127766E3,4.7327524E2,4.3614276E2,2.6327194E2,1.0164635E3,5.1650642E1,3.0682764E2,1.00749466E2,2.9673806E3,7.1675385E2,8.124999E2,3.6407028E2,5.623683E2,1.82868E2,9.435382E1,8.0131E0,1.2503411E3,1.008315E2,2.9001846E2,1.8804224E2,9.2679803E2,3.7987958E2,3.0276633E2,1.2419965E2,9.46143E1,4.5872025E1,1.4058197E2,3.941564E1,1.4786266E1,1.3728976E2,1.060268E0,1.4211861E0,4.4351947E2,5.3097943E2,2.570866E2,7.833883E1,1.3854171E3,2.5089645E2,4.4114887E1,7.490661E1,3.9505623E1,2.9539044E0,2.8164318E1,2.4051332E0,7.2213006E0,9.4152214E1,2.1669256E1,4.9329004E0,5.763287E2,1.1684213E2,1.0684099E2,1.3048352E2,1.3181905E2,1.5440831E2,1.3172207E1,1.7100329E0,3.0982424E1,7.181885E1,6.945709E1,4.1796925E1,1.6654968E2,6.913764E1,1.1937557E1,3.4135E0],"tree_param":{"num_deleted":"0","num_feature":"4096","num_nodes":"127","size_leaf_vector":"1"}},{"base_weights":[1.5680091E-3,-1.8562303E-1,5.325229E-1,-3.7453365E-1,2.0371601E-1,7.812037E-1,1.1117838E-1,-9.61428E-2,-5.9591043E-1,3.510861E-1,-3.5762364E-1,8.20425E-1,-7.918288E-1,-1.6423512E-1,5.753877E-1,-3.1447965E-1,4.1330203E-1,-7.18234E-1,5.5778477E-2,6.2181014E-1,3.8097095E-2,1.86774E-1,-6.6796285E-1,5.9177464E-1,1.0453081E0,-2.14641E-1,-1.1934007E0,-3.5501605E-1,4.978923E-1,3.7864694E-1,9.992372E-1,-1.8070702E-1,-9.195952E-1,6.5284467E-1,-4.5314103E-1,-8.030775E-1,-1.3622156E-1,2.1277566E-1,-7.436973E-1,8.128851E-1,2.4340394E-1,-1.8459316E-1,4.897049E-1,3.8615093E-1,-1.0368423E0,-7.595174E-1,5.207228E-1,2.1092302E-1,7.8896224E-1,1.0805712E0,4.0346867E-1,5.0890964E-1,-9.5642495E-1,5.117305E-2,-1.2564989E0,-5.3341E-1,3.0086535E-1,2.612348E-1,1.0088972E0,4.8719943E-1,-5.546333E-1,1.0504042E0,-7.34799E-1,5.608743E-4,-6.618458E-2,-7.235517E-2,-1.21254645E-1,7.258117E-2,-9.982197E-2,-6.094491E-2,6.895462E-2,-7.030516E-2,-1.14725165E-1,3.4658547E-2,-4.2994723E-2,3.5623603E-3,7.564958E-2,-9.986793E-2,8.827575E-3,6.746683E-2,1.2026516E-1,-4.3051518E-3,7.501237E-2,-3.3679616E-2,4.2093743E-2,2.661179E-2,8.966514E-2,7.2168775E-2,-3.995834E-2,-1.13746405E-1,8.371001E-2,-8.6872034E-2,-5.1015005E-3,-5.891555E-2,9.5450036E-2,-2.3621334E-2,5.911559E-2,8.2875125E-2,-3.21425E-2,1.1055237E-1,4.1289713E-2,5.7229858E-2,-7.6380596E-2,-9.609307E-2,1.06651776E-1,-1.1593603E-1,8.8989384E-2,-1.2951544E-1,1.0799736E-2,-7.5843126E-2,-7.041925E-3,1.1157775E-1,1.457931E-2,-1.8591026E-2,6.816035E-2,1.3988744E-1,5.7706382E-2,1.5711732E-2,7.3779844E-2,-8.4763445E-2,8.463879E-2,-1.5056553E-2,1.0977757E-1,-1.2975664E-1,7.615328E-2],"categories":[],"categories_nodes":[],"categories_segments":[],"categories_sizes":[],"default_left":[0,0,0,0,0,0,0,0,0,0,0,0,0,0,0,0,0,0,0,0,0,0,0,0,0,0,0,0,0,0,0,0,0,0,0,0,0,0,0,0,0,0,0,0,0,0,0,0,0,0,0,0,0,0,0,0,0,0,0,0,0,0,0,0,0,0,0,0,0,0,0,0,0,0,0,0,0,0,0,0,0,0,0,0,0,0,0,0,0,0,0,0,0,0,0,0,0,0,0,0,0,0,0,0,0,0,0,0,0,0,0,0,0,0,0,0,0,0,0,0,0,0,0,0,0],"id":9,"left_children":[1,3,5,7,9,11,13,15,17,19,21,23,25,27,29,31,33,35,37,39,41,43,45,47,49,51,53,55,57,59,61,63,65,67,69,71,73,75,77,79,81,83,85,87,89,91,93,95,97,99,101,103,105,-1,107,109,111,113,115,117,119,121,123,-1,-1,-1,-1,-1,-1,-1,-1,-1,-1,-1,-1,-1,-1,-1,-1,-1,-1,-1,-1,-1,-1,-1,-1,-1,-1,-1,-1,-1,-1,-1,-1,-1,-1,-1,-1,-1,-1,-1,-1,-1,-1,-1,-1,-1,-1,-1,-1,-1,-1,-1,-1,-1,-1,-1,-1,-1,-1,-1,-1,-1,-1],"loss_changes":[1.8121323E3,9.915394E2,4.978783E2,5.593252E2,3.6448688E2,1.8502441E2,2.257555E2,4.4747098E2,4.0307495E2,2.956231E2,1.5494434E2,1.4933179E2,1.67122E1,1.4021365E2,5.4447464E1,2.2776501E2,2.5080222E2,2.1009546E2,1.0056329E2,1.3506982E2,1.6294238E2,8.1761375E1,6.3938263E1,1.0859976E2,3.281018E1,1.7262192E1,5.2642746E0,1.0092437E2,2.9774532E1,4.5925613E1,1.9211105E1,2.0683296E2,2.8386139E1,1.1468793E2,4.721719E1,1.2709009E2,7.712556E1,6.445191E1,2.7989914E1,6.613489E1,9.135266E1,1.0016249E2,4.844536E1,7.608616E1,9.814148E0,4.1931213E1,2.0950472E1,8.4369934E1,4.2409546E1,2.2731201E1,1.5827528E1,1.4527646E1,6.944456E0,0E0,2.3398361E0,7.052025E1,2.3189133E1,3.2290237E1,1.2374191E1,3.332112E1,2.0184465E1,1.1673264E1,6.49959E0,0E0,0E0,0E0,0E0,0E0,0E0,0E0,0E0,0E0,0E0,0E0,0E0,0E0,0E0,0E0,0E0,0E0,0E0,0E0,0E0,0E0,0E0,0E0,0E0,0E0,0E0,0E0,0E0,0E0,0E0,0E0,0E0,0E0,0E0,0E0,0E0,0E0,0E0,0E0,0E0,0E0,0E0,0E0,0E0,0E0,0E0,0E0,0E0,0E0,0E0,0E0,0E0,0E0,0E0,0E0,0E0,0E0,0E0,0E0,0E0,0E0,0E0],"parents":[2147483647,0,0,1,1,2,2,3,3,4,4,5,5,6,6,7,7,8,8,9,9,10,10,11,11,12,12,13,13,14,14,15,15,16,16,17,17,18,18,19,19,20,20,21,21,22,22,23,23,24,24,25,25,26,26,27,27,28,28,29,29,30,30,31,31,32,32,33,33,34,34,35,35,36,36,37,37,38,38,39,39,40,40,41,41,42,42,43,43,44,44,45,45,46,46,47,47,48,48,49,49,50,50,51,51,52,52,54,54,55,55,56,56,57,57,58,58,59,59,60,60,61,61,62,62],"right_children":[2,4,6,8,10,12,14,16,18,20,22,24,26,28,30,32,34,36,38,40,42,44,46,48,50,52,54,56,58,60,62,64,66,68,70,72,74,76,78,80,82,84,86,88,90,92,94,96,98,100,102,104,106,-1,108,110,112,114,116,118,120,122,124,-1,-1,-1,-1,-1,-1,-1,-1,-1,-1,-1,-1,-1,-1,-1,-1,-1,-1,-1,-1,-1,-1,-1,-1,-1,-1,-1,-1,-1,-1,-1,-1,-1,-1,-1,-1,-1,-1,-1,-1,-1,-1,-1,-1,-1,-1,-1,-1,-1,-1,-1,-1,-1,-1,-1,-1,-1,-1,-1,-1,-1,-1],"split_conditions":[6.269508E0,4.6907735E0,5.113922E0,4.0265255E0,1.3219601E1,1.3437002E1,6.2890277E0,6.5973854E0,5.1021743E0,4.29481E0,3.6116138E0,6.469423E0,1.3488603E1,6.353794E0,6.135414E0,1.3307382E1,5.693976E0,6.3466587E0,1.32408285E1,4.327849E0,6.0359316E0,1.3448553E1,6.378843E0,6.087849E0,4.9199953E0,3.7008302E0,1.9653442E0,6.65266E0,1.0060678E1,1.3249366E1,1.3378707E1,4.011268E0,3.6538224E0,1.3437002E1,6.5807137E0,1.3227573E1,4.5831246E0,5.749158E0,5.93383E0,6.0463023E0,6.0329766E0,6.4013653E0,1.0317342E1,3.5999818E0,7.007431E0,7.465101E0,5.794901E0,6.3499136E0,8.434075E0,8.395172E0,1.1439618E1,5.854942E0,8.231644E0,5.117305E-2,7.1419344E0,6.1466074E0,4.3083124E0,6.4209723E0,4.6326833E0,7.28556E0,6.0937986E0,4.82489E0,7.5436196E0,5.608743E-4,-6.618458E-2,-7.235517E-2,-1.21254645E-1,7.258117E-2,-9.982197E-2,-6.094491E-2,6.895462E-2,-7.030516E-2,-1.14725165E-1,3.4658547E-2,-4.2994723E-2,3.5623603E-3,7.564958E-2,-9.986793E-2,8.827575E-3,6.746683E-2,1.2026516E-1,-4.3051518E-3,7.501237E-2,-3.3679616E-2,4.2093743E-2,2.661179E-2,8.966514E-2,7.2168775E-2,-3.995834E-2,-1.13746405E-1,8.371001E-2,-8.6872034E-2,-5.1015005E-3,-5.891555E-2,9.5450036E-2,-2.3621334E-2,5.911559E-2,8.2875125E-2,-3.21425E-2,1.1055237E-1,4.1289713E-2,5.7229858E-2,-7.6380596E-2,-9.609307E-2,1.06651776E-1,-1.1593603E-1,8.8989384E-2,-1.2951544E-1,1.0799736E-2,-7.5843126E-2,-7.041925E-3,1.1157775E-1,1.457931E-2,-1.8591026E-2,6.816035E-2,1.3988744E-1,5.7706382E-2,1.5711732E-2,7.3779844E-2,-8.4763445E-2,8.463879E-2,-1.5056553E-2,1.0977757E-1,-1.2975664E-1,7.615328E-2],"split_indices":[1062,3024,3942,3943,2080,2080,1049,1122,2896,3991,106,3034,2080,1454,1046,2080,3934,2607,2080,216,1425,2080,1110,1114,3926,3945,3883,1051,2077,2080,2080,216,3928,2080,2708,2080,2621,1360,1195,1111,2967,2902,2078,108,2920,1182,2901,2906,96,96,2016,996,1444,0,2968,2967,1660,2642,1409,2977,3223,1065,1305,0,0,0,0,0,0,0,0,0,0,0,0,0,0,0,0,0,0,0,0,0,0,0,0,0,0,0,0,0,0,0,0,0,0,0,0,0,0,0,0,0,0,0,0,0,0,0,0,0,0,0,0,0,0,0,0,0,0,0,0,0,0],"split_type":[0,0,0,0,0,0,0,0,0,0,0,0,0,0,0,0,0,0,0,0,0,0,0,0,0,0,0,0,0,0,0,0,0,0,0,0,0,0,0,0,0,0,0,0,0,0,0,0,0,0,0,0,0,0,0,0,0,0,0,0,0,0,0,0,0,0,0,0,0,0,0,0,0,0,0,0,0,0,0,0,0,0,0,0,0,0,0,0,0,0,0,0,0,0,0,0,0,0,0,0,0,0,0,0,0,0,0,0,0,0,0,0,0,0,0,0,0,0,0,0,0,0,0,0,0],"sum_hessian":[1.8230547E4,1.3479075E4,4.7514707E3,9.07557E3,4.4035054E3,2.9874192E3,1.7640518E3,4.0207444E3,5.054825E3,3.4881309E3,9.1537445E2,2.9152112E3,7.220814E1,1.107577E3,6.5647473E2,2.8147761E3,1.2059684E3,4.2558833E3,7.9894183E2,1.8698192E3,1.6183118E3,3.3250018E2,5.8287427E2,1.4472988E3,1.4679122E3,3.0255611E1,4.195253E1,8.601911E2,2.4738586E2,4.4965088E2,2.0682382E2,2.306236E3,5.0854004E2,9.4496387E2,2.6100452E2,3.7140796E3,5.418039E2,6.684155E2,1.3052635E2,1.2416858E3,6.281334E2,1.0842523E3,5.3405945E2,2.865018E2,4.5998386E1,5.415261E2,4.1348183E1,4.944258E2,9.5287305E2,1.3908164E3,7.709579E1,1.5474964E1,1.4780647E1,1.2433326E0,4.0709198E1,6.764024E2,1.8378874E2,1.7011371E2,7.727215E1,4.032282E2,4.642266E1,2.0127884E2,5.544991E0,1.6631771E3,6.430589E2,3.0673944E2,2.0180061E2,9.055064E2,3.9457493E1,2.3000835E2,3.0996164E1,2.8800925E3,8.33987E2,2.0487076E2,3.3693314E2,5.049582E2,1.6345732E2,9.975362E1,3.077273E1,9.186502E2,3.2303564E2,4.018674E2,2.2626599E2,8.6681744E2,2.1743488E2,3.4574954E2,1.8830988E2,2.0082416E2,8.5677635E1,4.4027344E1,1.9710448E0,4.690104E2,7.251569E1,1.1518457E1,2.9829725E1,2.2739664E2,2.6702917E2,9.201545E2,3.2718597E1,1.3400787E3,5.073769E1,6.7799286E1,9.296503E0,4.0571404E0,1.1417824E1,1.365216E1,1.1284876E0,3.9637115E1,1.0720797E0,4.5474875E2,2.2165363E2,2.8392035E1,1.5539671E2,8.270178E1,8.741193E1,3.9427162E1,3.7844986E1,1.7471947E2,2.2850876E2,3.8719982E1,7.702676E0,7.5553594E0,1.9372348E2,4.1260333E0,1.4189578E0],"tree_param":{"num_deleted":"0","num_feature":"4096","num_nodes":"125","size_leaf_vector":"1"}},{"base_weights":[2.7432267E-3,-1.9013977E-1,4.815552E-1,-3.4106487E-1,3.601651E-1,7.998663E-1,1.9763146E-1,-7.9181455E-2,-5.4070884E-1,4.7382537E-1,-3.6814335E-1,8.5784554E-1,-2.7026343E-1,3.068536E-3,7.066113E-1,-2.536761E-1,4.9421266E-1,-6.8864673E-1,-6.926817E-2,7.3648083E-1,2.1729435E-1,9.39544E-2,-7.427704E-1,6.318343E-1,1.0559483E0,2.7907675E-2,-1.2026334E0,-2.0398197E-1,4.7347155E-1,7.751961E-1,-4.5861354E-1,-1.3393714E-1,-8.540313E-1,6.8497455E-1,-3.5794923E-1,-7.938418E-1,-2.6089114E-1,-2.2067349E-1,5.850003E-1,9.179149E-1,4.0929618E-1,6.671683E-2,7.1662813E-1,3.5165393E-1,-1.1377022E0,-8.950207E-1,-9.8855235E-3,7.7865326E-1,2.2664994E-1,1.0776863E0,2.0346136E-1,4.3546298E-1,-8.7140125E-1,1.9108739E-2,-1.2580933E-1,-3.4373915E-1,4.2741355E-1,6.207076E-1,-1.8615325E-1,4.818561E-1,9.584525E-1,-9.6519125E-1,5.761756E-1,1.641297E-2,-3.7320103E-2,-6.621234E-2,-1.2219572E-1,7.6621965E-2,-5.4424327E-2,-4.8999805E-2,1.1038356E-1,-8.413967E-2,-8.080656E-3,-5.1122077E-2,1.8141165E-2,-4.3354123E-3,-6.654802E-2,9.432307E-2,1.8054374E-2,-1.0555495E-1,9.461838E-2,-8.020376E-4,6.1704155E-2,-1.1481381E-2,5.188488E-2,8.528925E-2,2.3519446E-3,8.337002E-2,-1.6463796E-2,4.4174515E-2,-1.2310644E-1,-9.408252E-2,9.652502E-2,-7.862922E-2,4.7079694E-2,8.437025E-2,2.7403142E-3,-2.1194409E-4,1.0190165E-1,1.1003454E-1,3.8399898E-2,-1.453061E-1,5.0792318E-2,8.860543E-2,-7.3786184E-2,-1.1019542E-1,8.042789E-2,-5.2417066E-2,9.87684E-3,7.5058125E-2,1.0518416E-2,7.651574E-2,2.0911517E-2,-6.415825E-2,3.950387E-2,7.535701E-2,-2.625997E-3,1.05854526E-1,4.848346E-2,-1.1261096E-1,8.455307E-2,-5.080421E-2,1.23796955E-1],"categories":[],"categories_nodes":[],"categories_segments":[],"categories_sizes":[],"default_left":[0,0,0,0,0,0,0,0,0,0,0,0,0,0,0,0,0,0,0,0,0,0,0,0,0,0,0,0,0,0,0,0,0,0,0,0,0,0,0,0,0,0,0,0,0,0,0,0,0,0,0,0,0,0,0,0,0,0,0,0,0,0,0,0,0,0,0,0,0,0,0,0,0,0,0,0,0,0,0,0,0,0,0,0,0,0,0,0,0,0,0,0,0,0,0,0,0,0,0,0,0,0,0,0,0,0,0,0,0,0,0,0,0,0,0,0,0,0,0,0,0,0,0],"id":10,"left_children":[1,3,5,7,9,11,13,15,17,19,21,23,25,27,29,31,33,35,37,39,41,43,45,47,49,51,53,55,57,59,61,63,65,67,69,71,73,75,77,79,81,83,85,87,89,91,93,95,97,99,101,103,105,-1,-1,107,109,111,113,115,117,119,121,-1,-1,-1,-1,-1,-1,-1,-1,-1,-1,-1,-1,-1,-1,-1,-1,-1,-1,-1,-1,-1,-1,-1,-1,-1,-1,-1,-1,-1,-1,-1,-1,-1,-1,-1,-1,-1,-1,-1,-1,-1,-1,-1,-1,-1,-1,-1,-1,-1,-1,-1,-1,-1,-1,-1,-1,-1,-1,-1,-1],"loss_changes":[1.659322E3,1.063849E3,4.6612207E2,5.2548315E2,2.2840125E2,1.5112842E2,2.701768E2,4.352774E2,3.9772424E2,1.605592E2,6.4597244E1,1.0263782E2,3.499427E1,1.9243596E2,6.0652527E1,2.3963187E2,1.6525502E2,1.9512695E2,1.3518146E2,6.9562744E1,9.0789856E1,5.3651997E1,2.2973457E1,6.408429E1,2.2538452E1,3.566087E1,2.5974846E0,1.21209335E2,5.876262E1,3.78627E1,2.287093E1,1.984436E2,3.8334595E1,8.328201E1,3.6506413E1,1.18056885E2,9.512735E1,8.7351585E1,3.6990532E1,4.323456E1,3.6597137E1,7.633462E1,2.6406784E1,3.4858208E1,4.859417E0,1.5438629E1,1.3969515E1,3.8704773E1,5.23384E1,1.8396973E1,1.676077E1,3.602742E1,1.2612616E1,0E0,0E0,8.9782715E1,2.5859173E1,2.9204361E1,2.9624027E1,3.814428E1,2.0240479E1,9.388271E0,1.1116886E1,0E0,0E0,0E0,0E0,0E0,0E0,0E0,0E0,0E0,0E0,0E0,0E0,0E0,0E0,0E0,0E0,0E0,0E0,0E0,0E0,0E0,0E0,0E0,0E0,0E0,0E0,0E0,0E0,0E0,0E0,0E0,0E0,0E0,0E0,0E0,0E0,0E0,0E0,0E0,0E0,0E0,0E0,0E0,0E0,0E0,0E0,0E0,0E0,0E0,0E0,0E0,0E0,0E0,0E0,0E0,0E0,0E0,0E0,0E0,0E0],"parents":[2147483647,0,0,1,1,2,2,3,3,4,4,5,5,6,6,7,7,8,8,9,9,10,10,11,11,12,12,13,13,14,14,15,15,16,16,17,17,18,18,19,19,20,20,21,21,22,22,23,23,24,24,25,25,26,26,27,27,28,28,29,29,30,30,31,31,32,32,33,33,34,34,35,35,36,36,37,37,38,38,39,39,40,40,41,41,42,42,43,43,44,44,45,45,46,46,47,47,48,48,49,49,50,50,51,51,52,52,55,55,56,56,57,57,58,58,59,59,60,60,61,61,62,62],"right_children":[2,4,6,8,10,12,14,16,18,20,22,24,26,28,30,32,34,36,38,40,42,44,46,48,50,52,54,56,58,60,62,64,66,68,70,72,74,76,78,80,82,84,86,88,90,92,94,96,98,100,102,104,106,-1,-1,108,110,112,114,116,118,120,122,-1,-1,-1,-1,-1,-1,-1,-1,-1,-1,-1,-1,-1,-1,-1,-1,-1,-1,-1,-1,-1,-1,-1,-1,-1,-1,-1,-1,-1,-1,-1,-1,-1,-1,-1,-1,-1,-1,-1,-1,-1,-1,-1,-1,-1,-1,-1,-1,-1,-1,-1,-1,-1,-1,-1,-1,-1,-1,-1,-1],"split_conditions":[6.2309422E0,6.52381E0,4.5164194E0,4.322639E0,1.3271375E1,1.3378707E1,6.4775047E0,6.7492423E0,5.1128297E0,4.33434E0,3.6449244E0,6.1192136E0,1.3505691E1,6.591357E0,1.3303617E1,1.3311657E1,5.7452984E0,6.340997E0,5.6249113E0,4.3027E0,6.133141E0,1.3459927E1,6.820796E0,4.2847724E0,4.7149363E0,1.1483519E1,6.1133494E0,5.8673553E0,1.3185019E1,6.1044703E0,6.7295585E0,3.510339E0,1.3448553E1,1.34011E1,7.2265353E0,7.8484135E0,6.376009E0,1.316526E1,3.6678762E0,1.2428512E1,5.7362556E0,7.0981255E0,4.882605E0,1.1057555E1,3.6469839E0,5.3386226E0,4.336326E0,8.350445E0,6.4837985E0,8.395172E0,4.957419E0,3.5790944E0,7.984703E0,1.9108739E-2,-1.2580933E-1,6.7892046E0,4.4368486E0,4.7380652E0,6.6272135E0,5.189317E0,5.3138056E0,4.297509E0,4.4604893E0,1.641297E-2,-3.7320103E-2,-6.621234E-2,-1.2219572E-1,7.6621965E-2,-5.4424327E-2,-4.8999805E-2,1.1038356E-1,-8.413967E-2,-8.080656E-3,-5.1122077E-2,1.8141165E-2,-4.3354123E-3,-6.654802E-2,9.432307E-2,1.8054374E-2,-1.0555495E-1,9.461838E-2,-8.020376E-4,6.1704155E-2,-1.1481381E-2,5.188488E-2,8.528925E-2,2.3519446E-3,8.337002E-2,-1.6463796E-2,4.4174515E-2,-1.2310644E-1,-9.408252E-2,9.652502E-2,-7.862922E-2,4.7079694E-2,8.437025E-2,2.7403142E-3,-2.1194409E-4,1.0190165E-1,1.1003454E-1,3.8399898E-2,-1.453061E-1,5.0792318E-2,8.860543E-2,-7.3786184E-2,-1.1019542E-1,8.042789E-2,-5.2417066E-2,9.87684E-3,7.5058125E-2,1.0518416E-2,7.651574E-2,2.0911517E-2,-6.415825E-2,3.950387E-2,7.535701E-2,-2.625997E-3,1.05854526E-1,4.848346E-2,-1.1261096E-1,8.455307E-2,-5.080421E-2,1.23796955E-1],"split_indices":[3033,2919,4007,3941,2080,2080,3032,1122,1106,4007,86,1063,2080,3034,2080,2080,3938,2578,2990,102,3113,2080,1060,105,148,2016,2069,1297,2080,3031,2903,104,2080,2080,2972,2977,2643,2080,3982,2080,1113,1122,107,2016,419,1074,2997,3680,2985,96,2770,3949,2975,0,0,2918,2875,85,1516,40,23,3589,1038,0,0,0,0,0,0,0,0,0,0,0,0,0,0,0,0,0,0,0,0,0,0,0,0,0,0,0,0,0,0,0,0,0,0,0,0,0,0,0,0,0,0,0,0,0,0,0,0,0,0,0,0,0,0,0,0,0,0,0,0],"split_type":[0,0,0,0,0,0,0,0,0,0,0,0,0,0,0,0,0,0,0,0,0,0,0,0,0,0,0,0,0,0,0,0,0,0,0,0,0,0,0,0,0,0,0,0,0,0,0,0,0,0,0,0,0,0,0,0,0,0,0,0,0,0,0,0,0,0,0,0,0,0,0,0,0,0,0,0,0,0,0,0,0,0,0,0,0,0,0,0,0,0,0,0,0,0,0,0,0,0,0,0,0,0,0,0,0,0,0,0,0,0,0,0,0,0,0,0,0,0,0,0,0,0,0],"sum_hessian":[1.796485E4,1.2806519E4,5.1583315E3,1.0050481E4,2.756037E3,2.4310398E3,2.7272917E3,4.3481636E3,5.7023174E3,2.3842925E3,3.7174478E2,2.3062844E3,1.24755325E2,1.9737942E3,7.534977E2,3.3340938E3,1.01406995E3,4.339974E3,1.3623431E3,1.177159E3,1.2071334E3,1.6677684E2,2.0496796E2,1.0792174E3,1.227067E3,9.5261E1,2.949432E1,1.3709355E3,6.028585E2,7.119285E2,4.156918E1,2.7807124E3,5.533812E2,8.2874603E2,1.8532391E2,3.482653E3,8.573212E2,1.1068645E3,2.5547859E2,7.5608234E2,4.2107672E2,9.283244E2,2.78809E2,1.3851073E2,2.8266113E1,1.6952864E2,3.543931E1,7.914963E2,2.877211E2,1.1962979E3,3.0769205E1,6.590808E1,2.935292E1,1.0351524E0,2.8459167E1,1.1228519E3,2.4808372E2,4.9289713E2,1.0996142E2,2.7513977E2,4.3678876E2,2.795242E1,1.361676E1,1.238342E3,1.5423705E3,3.6552512E2,1.8785611E2,7.7771936E2,5.1026634E1,1.7057957E2,1.4744333E1,3.2647358E3,2.1791711E2,5.473706E2,3.099506E2,7.921689E2,3.1469562E2,1.347751E2,1.207035E2,1.0164348E1,7.4591797E2,1.4026842E2,2.808083E2,6.6291187E2,2.6541254E2,2.3280855E2,4.600043E1,7.1313065E1,6.719766E1,1.3693154E0,2.6896797E1,1.6593712E2,3.5915258E0,1.3308081E1,2.2131226E1,7.2831036E2,6.318592E1,2.2403561E2,6.368548E1,1.1578894E3,3.840841E1,4.191492E0,2.6577713E1,4.7797333E1,1.8110752E1,2.610375E1,3.2491705E0,7.9749176E2,3.253601E2,1.2319782E2,1.2488591E2,3.642154E2,1.2868175E2,6.15927E1,4.8368717E1,1.7895883E2,9.618094E1,3.5956464E2,7.7224106E1,2.601827E1,1.9341488E0,5.2492447E0,8.367516E0],"tree_param":{"num_deleted":"0","num_feature":"4096","num_nodes":"123","size_leaf_vector":"1"}},{"base_weights":[4.285293E-3,-2.2630611E-1,3.564724E-1,-3.876485E-1,1.9932677E-1,6.219723E-1,4.7251686E-2,-4.645371E-1,2.6999828E-1,9.208934E-2,7.17488E-1,3.657036E-1,8.009673E-1,-1.4073762E-1,5.68965E-1,-1.590261E-1,-6.4727974E-1,5.6940556E-1,-1.4731419E-1,3.5774675E-1,-1.0894741E-1,9.696672E-1,3.5807136E-1,2.6051438E-1,9.419185E-1,8.842165E-1,4.3033215E-1,-4.001072E-1,2.4364762E-1,3.364203E-1,8.2218575E-1,4.3526687E-2,-4.697855E-1,-7.3019207E-1,-6.4052865E-2,2.2758858E-1,8.3132666E-1,2.39966E-1,-4.732786E-1,4.100147E-1,-8.543577E-1,-3.253352E-1,2.3049136E-1,1.0731033E0,3.9445868E-1,2.2632811E-2,9.1465193E-1,5.0273573E-1,-3.0370932E-2,1.0808597E0,3.505016E-1,1.024683E0,7.244027E-1,2.3009609E-1,8.8895077E-1,-5.673606E-1,1.3333301E-1,6.605381E-2,6.35946E-1,1.5446426E-1,8.5267305E-1,9.2450416E-1,9.196285E-2,-2.2638911E-2,3.6021248E-2,-5.714884E-2,3.469905E-2,-7.588437E-2,4.564153E-2,-2.8709656E-2,5.8267247E-2,1.4510296E-3,1.0416277E-1,8.967429E-2,-8.033855E-2,6.2207907E-2,-2.115869E-2,-6.4158134E-2,4.4642888E-2,2.5823388E-2,7.697161E-2,-1.2582295E-1,2.7393257E-2,-4.0443752E-2,4.2471267E-2,4.686254E-3,6.643992E-2,-2.1349486E-2,1.1054843E-1,-3.3654228E-2,7.9007365E-2,-3.3575878E-2,6.990919E-2,-3.9979466E-3,1.06672995E-1,7.596139E-2,2.4008838E-2,-1.5014561E-2,6.708566E-2,5.7537194E-2,1.1981455E-1,-3.9536458E-2,8.090325E-2,1.0631601E-1,1.7704036E-2,4.7580786E-2,8.990557E-2,-9.448183E-3,5.438775E-2,-1.4442441E-1,9.3395986E-2,-6.749749E-2,1.2802616E-2,3.310674E-2,-3.9682355E-2,-4.7094743E-3,7.92091E-2,9.095704E-2,1.6126996E-2,-1.7769845E-2,4.897509E-2,9.1437735E-2,-1.2452996E-1,1.05111375E-1,6.185628E-2,3.4188185E-2,-1.01338975E-1],"categories":[],"categories_nodes":[],"categories_segments":[],"categories_sizes":[],"default_left":[0,0,0,0,0,0,0,0,0,0,0,0,0,0,0,0,0,0,0,0,0,0,0,0,0,0,0,0,0,0,0,0,0,0,0,0,0,0,0,0,0,0,0,0,0,0,0,0,0,0,0,0,0,0,0,0,0,0,0,0,0,0,0,0,0,0,0,0,0,0,0,0,0,0,0,0,0,0,0,0,0,0,0,0,0,0,0,0,0,0,0,0,0,0,0,0,0,0,0,0,0,0,0,0,0,0,0,0,0,0,0,0,0,0,0,0,0,0,0,0,0,0,0,0,0,0,0],"id":11,"left_children":[1,3,5,7,9,11,13,15,17,19,21,23,25,27,29,31,33,35,37,39,41,43,45,47,49,51,53,55,57,59,61,63,65,67,69,71,73,75,77,79,81,83,85,87,89,91,93,95,97,99,101,103,105,107,109,111,113,115,117,119,121,123,125,-1,-1,-1,-1,-1,-1,-1,-1,-1,-1,-1,-1,-1,-1,-1,-1,-1,-1,-1,-1,-1,-1,-1,-1,-1,-1,-1,-1,-1,-1,-1,-1,-1,-1,-1,-1,-1,-1,-1,-1,-1,-1,-1,-1,-1,-1,-1,-1,-1,-1,-1,-1,-1,-1,-1,-1,-1,-1,-1,-1,-1,-1,-1,-1],"loss_changes":[1.4374231E3,7.3462854E2,5.749341E2,3.9234375E2,1.6334293E2,1.725476E2,3.1749344E2,3.8763867E2,1.01611465E2,1.30228E2,4.5344177E1,9.378523E1,6.804443E1,2.3737018E2,5.0215485E1,1.6372244E2,2.1008008E2,4.2187286E1,4.3065643E1,6.689174E1,1.02051636E2,1.716806E1,3.908256E1,9.254573E1,1.9268799E1,3.988806E1,3.7326653E1,1.2689467E2,6.680565E1,4.2014664E1,3.0532715E1,1.3474304E2,8.545334E1,1.2968921E2,7.834231E1,3.5841545E1,2.933722E1,2.7076126E1,2.8935211E1,5.4810013E1,2.027768E1,5.0500862E1,4.308186E1,1.0652191E1,1.3755511E1,3.2166237E1,1.1473351E1,4.816722E1,5.029551E1,1.0761032E1,1.638245E1,3.1150024E1,3.648044E1,2.916269E1,1.4355934E1,8.108066E1,3.5784054E1,5.4388203E1,3.8673798E1,3.7169727E1,1.6246605E1,1.3268097E1,1.4565935E1,0E0,0E0,0E0,0E0,0E0,0E0,0E0,0E0,0E0,0E0,0E0,0E0,0E0,0E0,0E0,0E0,0E0,0E0,0E0,0E0,0E0,0E0,0E0,0E0,0E0,0E0,0E0,0E0,0E0,0E0,0E0,0E0,0E0,0E0,0E0,0E0,0E0,0E0,0E0,0E0,0E0,0E0,0E0,0E0,0E0,0E0,0E0,0E0,0E0,0E0,0E0,0E0,0E0,0E0,0E0,0E0,0E0,0E0,0E0,0E0,0E0,0E0,0E0,0E0],"parents":[2147483647,0,0,1,1,2,2,3,3,4,4,5,5,6,6,7,7,8,8,9,9,10,10,11,11,12,12,13,13,14,14,15,15,16,16,17,17,18,18,19,19,20,20,21,21,22,22,23,23,24,24,25,25,26,26,27,27,28,28,29,29,30,30,31,31,32,32,33,33,34,34,35,35,36,36,37,37,38,38,39,39,40,40,41,41,42,42,43,43,44,44,45,45,46,46,47,47,48,48,49,49,50,50,51,51,52,52,53,53,54,54,55,55,56,56,57,57,58,58,59,59,60,60,61,61,62,62],"right_children":[2,4,6,8,10,12,14,16,18,20,22,24,26,28,30,32,34,36,38,40,42,44,46,48,50,52,54,56,58,60,62,64,66,68,70,72,74,76,78,80,82,84,86,88,90,92,94,96,98,100,102,104,106,108,110,112,114,116,118,120,122,124,126,-1,-1,-1,-1,-1,-1,-1,-1,-1,-1,-1,-1,-1,-1,-1,-1,-1,-1,-1,-1,-1,-1,-1,-1,-1,-1,-1,-1,-1,-1,-1,-1,-1,-1,-1,-1,-1,-1,-1,-1,-1,-1,-1,-1,-1,-1,-1,-1,-1,-1,-1,-1,-1,-1,-1,-1,-1,-1,-1,-1,-1,-1,-1,-1],"split_conditions":[6.4123654E0,6.7600346E0,5.1838717E0,6.2693415E0,7.116056E0,6.2780204E0,6.6510005E0,3.5461931E0,4.76432E0,4.0789375E0,6.2287087E0,6.0067825E0,4.5422893E0,6.1750154E0,7.218755E0,3.8817174E0,6.425882E0,5.8542266E0,4.0074306E0,8.528673E0,4.9535246E0,4.559321E0,6.71087E0,3.8228922E0,4.4249144E0,1.1045209E1,5.7166758E0,5.2792706E0,6.6963696E0,6.566935E0,1.1476312E1,6.4123507E0,5.5988355E0,6.2251234E0,6.4300833E0,6.2819185E0,5.170429E0,3.9627352E0,6.0624084E0,6.1674094E0,4.5378494E0,6.358993E0,5.7885146E0,5.0765567E0,6.6277385E0,6.183745E0,5.886279E0,9.355704E0,5.690475E0,5.7058053E0,6.118678E0,4.701013E0,6.4917426E0,5.4535317E0,3.8210304E0,6.280678E0,4.259378E0,7.484546E0,5.2213836E0,7.0803885E0,4.2703943E0,3.9485075E0,6.913772E0,-2.2638911E-2,3.6021248E-2,-5.714884E-2,3.469905E-2,-7.588437E-2,4.564153E-2,-2.8709656E-2,5.8267247E-2,1.4510296E-3,1.0416277E-1,8.967429E-2,-8.033855E-2,6.2207907E-2,-2.115869E-2,-6.4158134E-2,4.4642888E-2,2.5823388E-2,7.697161E-2,-1.2582295E-1,2.7393257E-2,-4.0443752E-2,4.2471267E-2,4.686254E-3,6.643992E-2,-2.1349486E-2,1.1054843E-1,-3.3654228E-2,7.9007365E-2,-3.3575878E-2,6.990919E-2,-3.9979466E-3,1.06672995E-1,7.596139E-2,2.4008838E-2,-1.5014561E-2,6.708566E-2,5.7537194E-2,1.1981455E-1,-3.9536458E-2,8.090325E-2,1.0631601E-1,1.7704036E-2,4.7580786E-2,8.990557E-2,-9.448183E-3,5.438775E-2,-1.4442441E-1,9.3395986E-2,-6.749749E-2,1.2802616E-2,3.310674E-2,-3.9682355E-2,-4.7094743E-3,7.92091E-2,9.095704E-2,1.6126996E-2,-1.7769845E-2,4.897509E-2,9.1437735E-2,-1.2452996E-1,1.05111375E-1,6.185628E-2,3.4188185E-2,-1.01338975E-1],"split_indices":[1116,2908,92,2671,1058,1060,3034,3926,1475,3993,414,3029,24,2607,2974,103,2903,1425,3925,3616,3025,22,1429,106,3947,2016,1003,2961,2606,1112,2016,3039,3094,3049,1258,2672,2692,22,1392,1113,1102,1129,1045,3107,2918,3032,1871,2018,2927,1127,2985,3882,1059,1360,2965,1426,17,3042,1599,991,186,437,1843,0,0,0,0,0,0,0,0,0,0,0,0,0,0,0,0,0,0,0,0,0,0,0,0,0,0,0,0,0,0,0,0,0,0,0,0,0,0,0,0,0,0,0,0,0,0,0,0,0,0,0,0,0,0,0,0,0,0,0,0,0,0,0,0],"split_type":[0,0,0,0,0,0,0,0,0,0,0,0,0,0,0,0,0,0,0,0,0,0,0,0,0,0,0,0,0,0,0,0,0,0,0,0,0,0,0,0,0,0,0,0,0,0,0,0,0,0,0,0,0,0,0,0,0,0,0,0,0,0,0,0,0,0,0,0,0,0,0,0,0,0,0,0,0,0,0,0,0,0,0,0,0,0,0,0,0,0,0,0,0,0,0,0,0,0,0,0,0,0,0,0,0,0,0,0,0,0,0,0,0,0,0,0,0,0,0,0,0,0,0,0,0,0,0],"sum_hessian":[1.7697793E4,1.0695419E4,7.0023735E3,7.755625E3,2.9397942E3,3.766989E3,3.2353848E3,6.9440557E3,8.115692E2,2.436682E3,5.031122E2,1.5503628E3,2.2166262E3,2.378918E3,8.5646686E2,2.5997073E3,4.3443486E3,4.7232666E2,3.3924252E2,1.049308E3,1.3873739E3,2.9466626E2,2.0844595E2,1.3122593E3,2.3810359E2,1.8089319E3,4.0769424E2,1.4204246E3,9.5849335E2,4.476745E2,4.0879233E2,1.5743844E3,1.0253229E3,3.8033997E3,5.409487E2,2.0572136E2,2.6660532E2,1.5515993E2,1.8408258E2,1.00656494E3,4.274301E1,8.472833E2,5.400906E2,2.4902083E2,4.564542E1,1.307104E2,7.773554E1,7.1562616E2,5.966331E2,1.9213731E2,4.5966274E1,9.598612E2,8.490706E2,2.8483502E2,1.2285922E2,1.0813253E3,3.390993E2,6.6060516E2,2.9788818E2,3.3196933E2,1.15705154E2,3.5831885E2,5.0473484E1,8.501093E2,7.2427515E2,9.1205634E2,1.1326662E2,3.7140806E3,8.931905E1,4.0264124E2,1.383075E2,1.6385059E2,4.1870785E1,2.5678116E2,9.824157E0,8.38374E1,7.132253E1,1.5586275E2,2.8219833E1,7.0907794E2,2.9748703E2,3.139132E1,1.135169E1,7.668679E2,8.04154E1,3.802694E2,1.5982117E2,5.976159E0,2.4304468E2,1.6080976E1,2.9564444E1,8.5771736E1,4.4938667E1,1.0783287E1,6.6952255E1,3.6082996E2,3.547962E2,5.1026248E2,8.63706E1,3.7297092E1,1.5484023E2,1.7552452E1,2.8413822E1,9.1793896E2,4.1922256E1,3.519053E2,4.9716534E2,1.4035236E2,1.4448267E2,1.7368348E0,1.2112239E2,9.3643677E2,1.4488855E2,2.4725517E2,9.184413E1,5.7234393E2,8.8261246E1,1.8838084E2,1.0950732E2,1.6699765E2,1.649717E2,1.1294738E2,2.757775E0,2.5171461E2,1.0660425E2,4.172925E1,8.744234E0],"tree_param":{"num_deleted":"0","num_feature":"4096","num_nodes":"127","size_leaf_vector":"1"}},{"base_weights":[-2.0511197E-3,-2.2846726E-1,3.217031E-1,-3.496867E-1,3.5541448E-1,4.215754E-1,-3.0422083E-1,-8.901379E-2,-5.6017786E-1,4.052485E-1,-9.4776374E-1,5.848875E-1,1.1709532E-1,2.0685236E-1,-5.240191E-1,-2.399511E-1,4.7485635E-1,-6.565584E-1,-1.6309466E-2,6.646058E-1,1.7666101E-1,-1.1183316E0,-1.8561532E-1,3.9703405E-1,8.733848E-1,-3.1675544E-2,6.685118E-1,4.4783702E-1,-7.8604364E-1,-7.0064837E-1,-1.607385E-2,1.458131E-2,-5.32381E-1,7.7545077E-1,-3.5966015E-1,-7.3017436E-1,-1.3591899E-1,-2.7371034E-1,3.6524287E-1,7.3713344E-1,-1.9554608E-1,3.574984E-2,7.6468635E-1,3.086343E-1,-1.2021545E0,1.1062741E0,-6.6523886E-1,5.96936E-1,7.1533E-2,6.960866E-1,1.0750823E0,-1.7482246E-1,4.6067387E-1,8.2533187E-1,1.5446939E-1,7.6713705E-1,-1.5625009E-1,-9.402228E-1,4.645836E-1,-7.830292E-1,1.9155827E-1,-2.784142E-1,6.4211655E-1,3.1829637E-2,-3.555891E-2,-7.612652E-2,-2.0661358E-2,8.371567E-2,-6.9399975E-2,-4.9154084E-2,8.699178E-2,-5.7868402E-2,-9.538351E-2,2.2730282E-2,-6.1824996E-2,-4.2116087E-2,3.4134317E-2,6.736728E-2,-6.516926E-3,4.271001E-2,9.151861E-2,-6.816905E-2,9.0268E-2,-7.4156313E-3,8.379133E-2,8.2567E-2,-5.630634E-2,-7.4020885E-2,1.2215276E-1,-1.2576143E-1,4.235604E-2,2.3809878E-2,1.3214035E-1,-1.0675281E-1,9.374835E-2,3.8731676E-2,8.842347E-2,-1.8743236E-2,4.8389725E-2,8.826694E-2,4.5884635E-2,1.1162435E-1,4.503205E-2,-2.7267635E-2,5.0799437E-2,7.08667E-2,-3.7593811E-3,3.3941094E-2,9.734131E-2,-6.762483E-2,4.134315E-2,9.745637E-2,1.960661E-3,-6.445057E-2,7.5397626E-2,-1.00094035E-1,8.0220304E-2,1.3448441E-1,-7.747048E-2,-8.267652E-2,7.458103E-2,5.5704176E-2,-7.7578396E-2,2.1733178E-3,-9.509125E-2,1.03125714E-1,6.0483343E-3],"categories":[],"categories_nodes":[],"categories_segments":[],"categories_sizes":[],"default_left":[0,0,0,0,0,0,0,0,0,0,0,0,0,0,0,0,0,0,0,0,0,0,0,0,0,0,0,0,0,0,0,0,0,0,0,0,0,0,0,0,0,0,0,0,0,0,0,0,0,0,0,0,0,0,0,0,0,0,0,0,0,0,0,0,0,0,0,0,0,0,0,0,0,0,0,0,0,0,0,0,0,0,0,0,0,0,0,0,0,0,0,0,0,0,0,0,0,0,0,0,0,0,0,0,0,0,0,0,0,0,0,0,0,0,0,0,0,0,0,0,0,0,0,0,0,0,0],"id":12,"left_children":[1,3,5,7,9,11,13,15,17,19,21,23,25,27,29,31,33,35,37,39,41,43,45,47,49,51,53,55,57,59,61,63,65,67,69,71,73,75,77,79,81,83,85,87,89,91,93,95,97,99,101,103,105,107,109,111,113,115,117,119,121,123,125,-1,-1,-1,-1,-1,-1,-1,-1,-1,-1,-1,-1,-1,-1,-1,-1,-1,-1,-1,-1,-1,-1,-1,-1,-1,-1,-1,-1,-1,-1,-1,-1,-1,-1,-1,-1,-1,-1,-1,-1,-1,-1,-1,-1,-1,-1,-1,-1,-1,-1,-1,-1,-1,-1,-1,-1,-1,-1,-1,-1,-1,-1,-1,-1],"loss_changes":[1.2775853E3,7.260336E2,4.4850604E2,4.6598047E2,1.149243E2,3.075349E2,1.11043976E2,3.2315512E2,2.4629468E2,1.0063617E2,8.276157E0,